{"sizes": [1024, 128, 64, 3], "num_layers": 4, "weights": [[[0.731093562826405, 0.08907225941344363, -0.5711383931382903, 0.623365699541729, 0.04419523149578338, 0.3886061200909243, -0.30182690362308495, -1.6237322281594002, -0.1951401546030852, 0.5770656055340879, 1.2083024193154444, -0.40418981427170164, -1.9570321691426802, 0.7726237405889708, -2.5432864974273075, 0.997776050417808, 0.7567250957438348, 0.2651580253570586, 0.25890364593264314, 0.5037935095639671, 2.2118978169025674, -0.5933089883029173, 0.4051933731558567, -1.8971202253400354, -0.5471617413471065, -0.34438755791908504, -0.39674754491505093, 1.0368561956773588, -0.38944179827558684, 0.0028417615752082087, 1.2907783172954408, -0.0801373030812329, 0.7119664176981682, -0.3882375429750612, -0.452843894538333, -0.9778106690644266, -1.4749332730473281, -0.22877718784570739, -1.2108220653232755, 1.0302982468912347, 1.110875148445809, -0.6676761516705619, -0.025116823224487925, 0.38555007704788374, 0.7786563515905904, 0.17741418472821446, 1.4041196464182326, 0.2864483353929986, -0.39774175131827777, -0.5085458502160212, -0.37530921070688694, 1.6820084090588836, 1.3073493263860483, -0.11750721565044013, 0.9171396680420149, 0.7408814999085321, 0.9226995791308616, 1.1233626121807943, -0.6949118080403232, -1.5305019526962145, -0.6640012585503287, 0.2666192413494367, 0.14588701668674794, 0.2856166729753946, -0.6600184419298938, -0.7794556683812771, -1.744903679910768, -0.27072506730589196, 0.21088058089741463, 1.542064793040091, -0.08100403490267409, 3.46857906758334, 0.1658688852376546, 0.2721739126621094, 0.9336819827988058, 0.37329608392720326, 1.266801294240726, 0.5209119102487394, 0.5411929941126008, -0.6321858697215239, -0.052179267264592884, 0.11754298462074222, 2.0674797415565016, -0.07000930140151027, -1.264884409626512, 1.3887876851854757, 0.18965085051051223, 0.656935906922893, -0.21726553324080086, 1.0100458564147088, 0.15245115169600928, 1.1511194288317488, -1.3672206373126394, -0.9263469846655842, -0.3838240560420124, 0.3230155954226907, -1.0179213611897073, -0.5109816289257998, -0.5424578315560151, -1.1275131155320728, 1.292598872265545, -0.39724765496846964, -0.614653887011234, 1.2829829538453343, -0.6577771579105045, 0.09937538250946633, 0.8708695428389335, 1.1300257912174851, -1.1969904700194862, -1.1828948212489907, -0.22816679922577787, -0.13555468088713674, 0.49559856300090793, 0.2738517788424086, 0.24635159349802932, 0.09112895338144392, -0.6474195348790551, -0.7236425555123721, -0.46606047346005647, -0.6627905901042904, 1.5071054708512932, -0.4978608338100133, -0.21647061029798192, 0.5853769423913081, 1.1472789127415242, 0.31193453096354695, -1.5424546539621098, 1.3431264144006108, -0.08361163395468765, -0.07110968513802426, -1.4451604484769678, 0.6600525356822904, -0.11668752798728518, -0.04057418141276693, 0.48428843645294367, 0.11518385000245587, 0.4110695553777384, -0.7918574783624016, -0.5557984430633948, -0.39598998256410844, -1.6084003761681647, -1.9708643147537959, 1.1464856314660392, 1.0726439989374126, -0.2839520244181444, 0.3151408562614016, 0.22572440474095803, -0.9960126137598785, 0.7965399307240256, -0.7332174765401972, 0.14999925633419223, 0.2436782152693829, 0.7370550089943447, -0.35233938360393086, -0.6916893585957211, -0.08153921931509005, 0.8583298625685151, 0.15565733983981342, -0.2742123920428645, 0.07760361205158381, -0.4959723291761542, 0.4391316421658944, 0.03341089826498036, 1.6259639733618523, -0.7662059841677524, -0.5682886262065696, -0.7931885858491633, 0.4158952445281503, -0.33764914676145624, 1.0798743661024293, 0.32274571336303154, -0.6547112898776053, 0.18988544479899036, -0.9272385590837652, -2.121579145252582, -1.584445503955376, 0.4299728910959943, 0.5393897410525728, -0.5552592959192884, 1.305664823666212, 1.8970191881801544, 0.3398109205647248, 2.0061566148337695, 0.5612100371062972, 1.0112007985656783, 0.06252478300760575, 0.22392734486959712, -0.5321903717262036, 0.4928342828429765, -1.7392435872854926, 0.909963613461233, -1.6934455003626703, -0.6374938540497477, -0.5241303729764928, -0.08018860305115913, -0.3543079863284548, -0.8928838445641946, 0.9795498431996388, 0.1982807003381798, -1.1778240259843724, -1.4053807756964964, 0.0888239278155295, 0.21836721295210382, -1.363798196626984, -0.6133480510958595, -1.0756239839286044, -1.0985016471809117, -0.9701764855283863, 0.5896677140936897, -0.7546550108027914, 0.6783812137501622, 1.6756741313820682, -0.3585780979455043, -0.22328717664632283, 0.959421515247196, 0.7199150741006466, 0.9101500088973257, 0.3233139221586802, 0.7676882297880245, -0.6889801077195914, -1.1839756503210923, -1.5673653673255115, 0.22339124069927155, -0.9788137429588981, -0.8207755106397338, -0.814462254933213, 0.9837293960736113, -0.759083504139905, -1.1976907544345143, 1.7082944106363043, -1.09688310121592, -0.34560915320234625, 0.7778893042183709, -0.5177008132822397, 1.3761430946269586, -0.590342170013428, 0.6877666399118867, 0.25301279271944804, -2.5591940770113544, -1.358117832108882, 1.2764418827828992, 0.780246096374026, 0.2983849738583444, -1.2288200246896719, -0.03248266063484395, -0.5625658254926604, -1.5044923500704912, 0.6095877371773649, -0.24853367598420276, -0.21043891960005193, -0.6272615381573919, 0.5794703901058604, -0.6329208378410934, 0.10142664543147303, -0.04816494561508539, -2.1722427940585405, 0.025604075820481065, -0.4664640175794219, -0.6812567785891559, -0.6789238242039289, -0.012748332058353955, -0.32985845638195965, 0.12921632221892634, -0.2652218400265283, 1.623103481755815, -1.5928469074985407, -1.2599896376021287, -0.5240786363813295, -1.72181268686995, 1.4813763592203522, 0.00810894183510432, 0.46918694015793455, 0.9557476152488259, 0.7279794715999354, -1.5512118889936974, 0.5030628494942591, -0.5607275260430902, -0.20841349987106078, 1.427774105150725, -0.028302809755804417, 0.47432893801008513, -0.2227813391794363, 0.439648521151203, -1.2314794140973322, -0.3872384316602244, 0.5630300477430663, 1.1768141582948906, 1.0062079040279177, -1.3469248101870361, -0.31911595992792213, -0.40353069778762, -0.0706244900249523, 0.903957800269758, -0.9522747735275953, -0.7265615003026773, -0.08242070678123713, -0.1270205397978137, 1.5191583407525278, 0.9914334238345899, -0.6154239655360232, -3.327408966252441, -1.0157909785968846, -1.1057557379081553, 1.227601665688662, -0.30080307527953865, -1.4221658605064669, -0.3848622334463995, 0.6750136881432417, -0.27498534322357676, 0.695535656384087, -0.024910254640333022, 0.5269146763898396, 0.3622389731755848, -0.7854824986585565, -0.19061012008315856, -1.9619404690896645, -0.495445094274729, 1.152838420491925, -0.6309207425430268, -0.6596675822391928, -1.111785699320217, 0.8217530755766683, -0.542033274687877, 0.5524037668333965, -1.5031198800165166, -1.0325906882299767, -0.2654137763600481, 1.8226251563862244, -0.9243827127455757, -0.31848703405274453, 1.9603062340244581, 1.344661410048695, 0.8975580602342891, -0.09205588506454568, 0.003359491679416287, -0.038394279456928075, -0.5800174783694161, 0.5394108939984511, 0.24938475750895162, 0.8210627962085839, -0.31857694581612506, 1.163446962638685, 0.735573750716103, 1.1515809788962525, -0.8654750750119086, 0.3999293614054108, 0.3611060921976752, 0.6677623811661745, 0.19535849428232596, 0.23816797003778614, -1.4570735325425814, -0.8198123884059446, -0.6938025598747344, 0.09936570349001139, -0.023046512514689824, -2.1804358496068175, -0.5307096225970109, -0.2832781234007819, -1.2271491439109923, 0.2724075981044943, 1.05105807625819, 1.3888398515218887, -0.8804797787343538, 1.0309938395161249, 1.1424255290437944, 0.5014876671439168, 1.435018813783092, 1.5261679351699855, 1.5045170162581, -1.0744144879966049, 0.9188551390517689, -0.3671655102882658, 2.5609385186274825, 0.2547272065306261, 0.4297466176766575, -0.8884466349410272, -1.020581491827274, -0.34473299840634464, -0.6829804617598751, 0.22617292485641338, -0.5017059730263088, 0.4481268855349381, -1.5775448312509819, 1.3613483390374124, 0.39555667045166465, 1.5357154385570178, -0.5433162840037764, -0.16823434529016362, -0.8215886081504075, 2.144208402674778, -0.4808700184783344, 1.321771631489553, 1.585903760254175, -0.2934295689686533, 0.20568161940704904, -0.9511080754160243, -0.7855192553923631, 0.8544101779007365, 0.2623438598580262, 1.1509066072830443, 0.020412297240462337, -1.0707965345166897, -0.5233880214641764, 0.23931029209091184, 0.03681128880346939, -0.07045265520523962, 0.4586108286903098, 0.31220583308732, 0.10100117973842153, 2.090004912050278, -1.316342707211088, -0.03298147257099713, -0.6640289622313648, -0.19785559186963617, 0.20533211993218342, 2.2090630580869544, 0.7668240564213681, 0.03477310759762971, 0.5315836509305257, -0.2336772968286813, 1.3892989879979567, -0.2193991389780779, 0.45799291762980165, 0.6074875819815311, 0.2454581885142325, 0.7051305582141799, -1.3133164026613338, 1.0935680105943575, -1.2479837504437874, 0.42277699990044154, -2.461857403048563, -0.7130623843300511, 0.37675735058814847, -0.042021730839678174, 0.4388988849324871, -1.010119999370252, -1.553583366059068, -0.5580845345319734, -0.8321404757488249, 1.1660345313720795, 1.295193154436695, -0.10243340585391619, 2.587339003320678, -0.9235137682414274, -0.6399411448246148, 1.6859617618746752, 0.14183072553404522, 0.9522725647972509, -0.7111189570601236, -0.08164397456734244, -0.8494425853677081, 0.45331945358600967, 0.30265165884339806, -0.39145013914654214, 0.6167288342211398, 0.6726257901816481, 0.37459168292448847, -0.5790119925302616, -0.053340178716623506, -0.233287374392937, 0.34266023110067073, 1.251142027413208, 1.3698530534452655, 0.05612820204020882, -1.620853131484802, 0.08278219173033236, -0.2367172918816641, -0.39007149733143065, 0.47968389016752594, 0.5076558920904588, 1.8805743787012914, -0.7753318812676293, 1.2379314330955697, 0.6405009151189818, 1.2126035619294735, -0.7085979293516955, -0.21628980619589722, -1.6778318717810938, -0.5301453634125888, -1.152375401126048, -1.0920156240141385, -2.114709397112156, 1.5499741429721694, -1.2951499358045888, 0.29797201546039953, 0.15179436885099393, 0.5120860016460217, -1.2748179348356259, 0.32687370502654406, -1.1337907887790393, -0.05369693065881017, 1.2360131844381093, -1.4289704492726134, -1.0598685829787449, 1.003481962486426, 0.5315962495333729, 0.5750244219713047, 0.25773646478334805, 1.9331115308432019, -1.0507606342813254, 0.7832278328690838, -0.59083524271979, 1.0411081115971903, 1.334593423597245, 0.5650810518308788, 0.540501261414464, 0.6654417196128722, 0.07615801748724835, -0.7718903185826932, -0.860230746404437, -0.17179718977892527, 1.0221905753711238, 0.6657789373899451, -0.494898634719807, -1.2508664320341658, -0.20703551251234267, 1.4156884134213565, -0.8888775073068923, -0.18901819686692017, 1.095489752806665, -0.12190532671142512, 0.06337132287803904, -1.2072225629827071, 0.3289674252594862, 0.719554202550138, 0.7830766859788348, -0.16944558144059996, 0.33739201566802507, 0.9051598928858468, 0.5650147990629557, -0.16441551244424002, 0.892542965409284, 1.42791107810212, -0.644251625690364, -0.24389798195609372, -0.7687215407950327, 1.2490415922718765, 0.7709228461225675, 0.30172240885731944, -0.33866696692095644, -0.26420423213284716, 0.14367609922173294, -0.24761592821348563, 2.919151669895562, 1.7674545653198528, -1.9507935616248437, -0.22950927462893575, 0.1422829907530688, 0.838519302685978, -0.8181700106241562, 0.9387634243818613, 0.4613815838668352, -0.7168541116043727, 0.5633439851018449, -1.1320667002053983, -0.9534834922133772, -0.0795064542326652, -0.4490568135241048, -0.05717632652511168, -0.41688020635799117, -0.33667494413433025, 0.030810785032423637, 0.5026195857263479, 0.09988876556273962, 0.2648442194284714, -0.24227503591864874, -0.661892132218879, -1.3302619272520906, -0.003452699181622799, -1.557634649916055, -0.7255594609482716, 0.3114125567010815, 0.4003847318926013, 0.5786857322023727, -0.1026878512522066, 0.42707678342302974, 0.019438808729298682, -1.8004354518165435, 0.42274632941176354, -1.210545625641826, 0.5890714157709785, 0.5316249057469065, 0.5578893326269037, -0.12202158152062885, 0.5463581329514098, 1.3440108014063525, 0.6911349315553457, -0.0064334681738282195, 0.22155669465204256, -0.6222445968852063, 0.9748199327438634, 1.209913954545905, 1.2431011611748481, -0.4528364223772272, -1.2212991948778007, -3.0065050214406357, 0.8392703777670851, -0.8795243610198048, -0.06148044538027462, -1.05904337389502, -1.6745652661027888, -0.44808186533190814, 0.8920873984810828, 1.009135867462381, 1.4581540629206406, 0.2751482513737325, 2.0149095767547007, 0.07262534756853524, -1.7305993519174387, -1.2164503037939032, -1.084142053164668, 0.22270389457324138, -0.9636833077784067, 1.942446379950155, 0.38967105260678186, 0.211165938902109, 0.08155473055048548, -0.8451071583736127, -1.072789120467052, -1.735332599639659, 0.3830826077470803, 1.7126424952485546, -1.0938226550480767, -0.14145542266343442, 0.44041388285483846, -0.3344821492935581, 0.46937089961914824, -0.4335778461932925, 1.0735541002389846, -0.41319731315907215, -1.580664810984342, 0.3285445104692589, 1.4324627522603064, 0.3463440661753794, -1.9558870838686786, 0.9841739333206305, 0.7031564395034362, 0.1625238279289679, -2.3471977990244914, 0.5797803642347705, 0.01778722174626789, 1.5375503931555623, -1.5215492909606978, -1.29232970492838, -0.3402412677044484, 0.08352173329993196, 1.1734745902101478, -0.4471217567842183, 0.7569896143415947, -0.5978587723001474, 1.3377577504828764, -1.974623375825696, -0.5100999277196686, -0.35399338939150576, 0.2886136081248417, -0.5544150756510559, -0.9714206076538453, -0.7689018992475002, -0.9878836822529704, -1.6527276784901739, -0.40215976340555093, 1.0440527303921752, -0.11311793633416432, -1.1368474163091717, -1.931668855916129, -2.0518533030601986, -1.000363878380612, 1.1065112574955667, -2.350379907731366, 0.9484938538135491, -0.9302670970030368, 0.103312317305014, 1.0607546927281626, -1.7333741110660315, 0.48697366187636115, 0.989289650879307, 0.993374137801371, 0.4563004103354492, 0.9030106060842338, -0.8179382260175243, -0.06345693424779686, 1.1493789763937161, -0.0982123160163641, 0.3143555969867572, -0.5848527215981911, 0.10990815819877492, 0.5255955205362015, 0.6388820625574453, 0.43906182288031614, -2.7022769347249413, -0.0016664375578765106, 1.072928650992479, -1.9369930277550043, 0.4538803276201083, -1.7257696431616856, -0.1530314784903888, -1.731586702845917, -0.9900865510630065, -0.9347866798692108, -1.0450420399763292, -1.8729289875336488, -0.9583907590421623, -0.12743571645354662, 0.20507044589056705, -1.0574835300704168, -0.11318305798703455, 1.6916515932967853, -0.8976392291729618, -0.29294694856951586, -1.2975321915515965, -1.6912562325862552, 0.08945234774951905, 1.7006791128484473, -0.4384389225831, -0.16291025688352376, -0.24256073646519458, 0.4806797984138444, -0.5201538361441114, 0.3445919057706819, 1.6778170900658353, -0.6181174015901058, 0.20908398221291005, 0.7036501867484577, -0.1433782743382936, -0.7794983319020555, 0.7093354503050968, 0.11684286166609598, -0.10576971241236086, -0.45225088374565686, -1.0532467265484589, 0.07595405706459797, -0.7483746440779646, -0.018226202911804268, -0.6090217193248825, -1.9454200780688329, -0.15856250845791692, 0.7169914020948056, 0.8424329027796013, 0.44783377971823035, -1.7364493776609315, -1.452338913215178, -0.61623989088951, -1.0261905255616393, 1.2824838989034768, 0.2693104575582696, 1.3577356559319311, -0.2763363393665531, 0.07446634656333001, 0.9285679158747783, -1.4811430574690443, -2.3164755446099248, -0.5254085097890195, -1.2704995369261647, 0.6332724145943596, -0.03287862489533679, 0.06071882430216505, 1.003490611777127, -1.2942708204536963, -1.7318439890077801, -0.9063306181294406, -1.704603266275956, 0.542301052077922, -1.5431481423977746, 1.7869646458642099, 1.1654249410975026, 0.41050737219512995, 1.8484405659540146, 0.32233249314407486, -0.4358798365330797, 0.6994394497516346, -1.111867837431669, 1.025116410107507, -0.40243275932217604, 0.3331603389786835, -0.824872740765986, -0.6700333197481696, 0.3945444188632221, -0.41579661322828376, 0.5136149504341302, -0.2963957074177898, -0.46292148881078293, 0.13957837775243717, 1.6119438520278395, -0.9054661250020625, -2.093447811461481, 0.22833216143462845, -0.281299330664619, -0.9909586799015508, -3.2058368767505816, 1.577741221840884, -0.5682969309846673, 0.801802623051336, -1.207522078983327, 1.1814307949785972, -0.22342596042529939, -0.013876956102107514, -0.6875732350138859, -0.02749543175020651, 1.3825082469606744, -0.03697778842014016, -0.5020128523113842, 2.197113906772636, -0.7781865474006565, 1.5640723497444413, -0.5360226558797616, 3.0626752013486165, 0.7052639169156487, 0.20002033778194306, 2.246360753306035, -0.6506752731987624, 1.157883317532131, -0.521135706239416, 0.18535512073674112, 0.9181130665882121, 0.9129703685208885, -0.9420551889874264, 1.0253777216278606, 0.7504256508738439, -0.3812169447337184, 0.38489110781402247, 0.44978602528227407, 0.3992759333461772, -0.7930217729994343, -1.6511198708257504, 1.5653916497439395, -1.0820447603230934, -1.1754114664811124, 1.8716548628097414, 0.0799984709855094, 1.2387529967136106, 0.20426276142916586, -0.18253820749485955, 0.7389329336033937, -1.1997507751680792, -0.17443512192590996, -0.26912235491372993, 0.45748995654047514, 0.5578204267813264, 0.20285762297494672, -0.6937875529192774, -1.7053100767473202, -0.06711425297585356, -0.1287421431401446, -0.24338795561058432, 0.10629966622252686, -0.46299840589367597, -1.3778659925343066, -2.6790818139731862, -0.6596937560250329, -0.9472921399627556, -0.5722770554257023, -1.0628096352606984, 0.17094925058202576, 1.564525642622629, -1.0882398351953328, 2.3340276955213395, 0.6192844834070773, 0.7687314165851401, -1.3532209720598403, 1.3076676310046533, 1.2980594108377672, -1.1402127593804396, -0.9747502045124254, 1.3668849900653663, 0.5520278868128874, 0.6826115225859869, 0.6928463430751426, 0.7748766707824905, 2.1388561842480684, 0.7452886023446667, 1.6992687595048972, 0.8188858472734235, -1.0972421421394318, -1.104699292504936, 0.6234966003626053, 2.1656674795892754, 0.7727609904663059, -0.2917438753515803, 0.5307299167474699, -2.0646984179846037, -1.2058864299762164, 0.21279874149191597, 1.8603351683668945, -0.17915271558386905, -1.7966741673844233, 0.49187181521619655, 1.1499496984452782, 0.2656614927824886, -1.2550157588041806, 0.17131701948483793, 0.09716261750534842, -0.7381369884535968, 0.3309739397300896, -0.6426804639492969, 0.5451992435521162, 1.856266024522092, 0.9205051206915517, -0.12900669857669306, 0.8006528917604225, 0.17566366897612054, -1.3413538648440577, 0.30901252821306063, 0.510678305824492, -1.1597807370445217, -0.13703784488741752, -0.4227670635678676, 0.6950155519368746, -0.36966721190609253, 2.4752957092245076, 0.6099963434371528, -2.1397392338479806, 1.3041448893738707, -1.1163093732924596, -0.15932311108246658, -1.7304641192560333, 0.319695296773414, 2.0574942897913195, 1.3550759647116224, -0.12413090946213831, 1.0140478358916776, -1.8104737864668887, 0.23067142324829248, 0.06973586115086104, -1.1910361821618003, 0.11652530790922354, -0.819401867323655, 0.20120843256025525, -0.5239025358733527, 0.48607896110218396, -1.3360278706069204, 0.0614354517878577, 0.5695850137780152, 0.613506028990262, 0.0928227610488993, -1.6128412727190993, 0.878411227709602, 3.6920414426104675, 0.3541264376760305, -0.5125270616531453, 0.6372888673493338, 0.19958067755493397, -1.0172021004257186, 0.2871517714420914, 1.1024902255354465, -1.487161400147895, 0.8566596634623717, -0.3034499515770075, 1.0030234820620707, -1.0985580957330987, 0.2993265602391857, -0.41263352970267675, -1.097722277312394, 0.5252375711142914, -0.7049962621151703, -0.27374077377934375, -1.8480954725697074, 0.9635947954135612, 1.1014024329594092, 1.424010944375493, -0.6661153968751374, -0.03926849939414338, -0.19217511322956593, -0.029181329417149664, -1.9910793168600838, 0.14965122921929863, -1.4912111046224727, -0.7130183915880498, 0.9653218034622019, 0.10044826487307625, 0.40348976873284564, -0.6173908371776325, 0.03664663155620242, -0.6454028645574249, 0.300177385918529, 0.27980430103358395, -0.4678932993081282, -0.6299953011351479, 1.8717168880352304, 0.11088955994627604, 0.4397944740678055, 0.7201554261483666, 0.8428284080093352, -1.2463957461230082, 0.5989208981269966, -0.8970966272624226, 0.09172452734687624, 1.0315064237542853, 0.03498733079412568, -1.5519345971482208, -0.17635051066313728, -0.7568338634591816, -0.320138345584033, 0.3911294251741235, -0.6330569209663508, 1.2000907299364967, 0.4539347554511203, 0.8938253754238185, -2.629706480202163, -0.12385913590313506, -0.5457552182387926, 0.06247607364855839, 1.2047174329969899, 0.022352124887922736, -1.7312532272366203, 1.385455688878504, -0.25519807822418733, 0.005168917845872928, 0.25676855996468984, 0.8837232099563529, 1.024986866860692, 1.8599908991657248, -0.3716492373867366, -0.7789591090966732, 0.06978100537609794, -0.11136427259422782, -0.4624059997067285, 1.5378028654421136, -0.26528034178192295, 0.2714533677312419, 0.32792184873464936, 0.33057497745797526, 1.8138751495074237, -0.7926100408883173, 0.78384708575636], [-1.4336638861743756, 0.01981852423406617, 0.4699935699798567, -1.1958260269167986, -1.2046942429009604, 0.9840883891807114, -0.6055426817120995, -0.2027111022597428, 0.35289913714200183, -0.3648098057236731, -0.33767520670153445, 0.35711519147076864, 1.256442028721513, -0.08422808755561284, 0.04691561918402326, -0.12774179903389782, 0.5258983741825531, 0.32709825259586534, 0.1333810105451804, 1.4004815515499476, -0.9214623144230711, 0.33827389905078964, -0.039029987076701786, -1.5055123187616377, 0.18552130551946713, -1.0368030385974303, -2.02822557367009, 0.5614616842188783, -1.1519154010793973, 0.379592878647983, 1.0086609443731445, 1.3387663316275882, -1.6535227447014, 0.884474810148448, 0.548059828733134, -0.13703771413874297, -0.3242182373375883, 0.11912761507331322, -0.8050196707786835, 0.8592668100599347, 0.7727605932880246, -1.3836997129512651, 1.4502477959013456, -0.3033863449146951, 1.0653769058185025, -0.6680953156813565, -0.4844016674235774, 0.7240455442929877, 1.4333063503556063, 1.0192441764289915, -1.3343073941110926, -1.072885251347223, 0.3212649863028772, -0.42489810896197683, -1.6946303425123865, -0.23576978172105256, 0.27606644539966013, 1.7110126685068998, 0.5147162416403465, 0.22035773103133277, -1.2535426209992409, 0.49842339675141706, -1.1614141087367522, -0.2800497720857897, -0.2268808353758104, -0.36055337547790967, 1.909099430581544, -0.6217874554896732, 0.30876415174264155, 0.2634396937768295, -0.5626232717589633, 0.6517719603412322, 0.7167763846285075, 0.7589703984999386, -1.4578997270458454, 2.067157139271856, 2.199028303004733, 1.3818256588559845, -0.09610789161921078, 2.5639407972057424, -0.11658719165794285, -0.4333527998860392, 1.6090648869966862, -0.48534023244396324, 0.2058747468466261, 1.2281586620873821, 0.6558964080531746, -0.2559243497500126, 1.0785603580181953, 0.26162615067641604, 1.099757366143588, -0.7253046621148683, -0.36938956233969056, -0.1657027588174318, 0.4424281133668688, -1.44689220524365, -0.8866548873094034, -0.1903417657035185, -0.17597828950769, -0.14365785470196554, 1.431128996378582, -1.8877821865388669, 0.535487336089538, -0.7135960597255877, 0.854807020020831, 1.333265518450052, -0.2738525772125882, -1.6284490707889876, -0.7104834948859519, -1.7406135745129545, 0.434771709056335, -2.172704690759094, 1.481695880160707, -1.8255580767762776, 1.06415128625927, 0.6272383910895623, -0.7940389883390737, -0.8033721928498537, 0.7943524035436447, 0.8599116887164892, -0.13534971154420194, 0.3966041200020625, 0.720009783667241, 0.39434799666611464, 1.2609275734211622, -2.092974639576913, -0.17489355882178023, -0.6082917233255117, -1.5703814248918928, 0.9387980222857755, -0.9229105850553434, -1.7805181778376804, -0.0006479436808571093, -0.05765122679374804, 1.3835658470273053, 0.0905043896022478, 0.46260351876284006, -0.03495045255368141, 0.28350684439204094, 0.42687465203336483, -0.8994590617819064, 1.006062458033733, -1.8564749528603461, -1.734647765161225, -0.16066697198353574, -1.176554153744455, 0.40633835710014005, -0.9186802668859255, 0.567222587750787, -0.2972786551366807, -0.5574120945306619, 0.1945929085125318, -0.1422029960824548, -0.7388869035963733, 0.453035364309922, -0.2564458279765895, 0.9717906281172946, 0.5027056627714307, 0.4065815108186478, 0.731378516257972, -0.6314419404057672, 1.5033801282102275, 1.8642977400863014, 0.9898830732633214, 0.31059923616357854, 2.350256358070154, 0.38460065800612864, -0.5252910541007598, 2.078831184590381, -0.5500915237291317, 0.3145697481864821, 0.8287221769935103, 0.05864024104036836, -1.3040418653010688, 0.03282217192493294, 1.4893010969881992, 0.38849292941542624, 1.2579961409827418, 0.018955922568238928, -0.33782848698208456, -0.726043092794235, 1.0975316628252723, -0.012973392118138652, 0.02513823026545195, -1.024242234777864, 0.44598632208223127, -0.333660884145369, 1.3510385293844558, 2.544714031168588, 0.8671233486156109, -0.5887231231935189, 0.6417477403479847, -0.265841545961092, 1.2841744705892184, 0.12890208077045995, -1.1859831793111824, 0.4930460208312043, -3.0185014255537173, 1.7478231486131803, -0.6542773493230357, 1.6410760769185353, 1.4975798749363483, -0.08023035023434189, -0.8729762235697884, -0.5900242424919158, -0.8068697608820493, 1.354752069945479, -2.678382615126111, 1.3475187941951374, -0.9793637756003751, 0.8115045277367108, 0.21025416270989267, -0.31924824052868384, -1.2419745555429103, 0.09785229759193662, -1.1441742836764812, 0.1898087746791608, 0.5621966867790062, 0.44632281331211143, 0.22318313652823926, -0.7853718015610498, -0.7803763742226939, 1.3812617573494488, -0.6528905097495199, -0.520239174933404, -0.06595234127960911, -0.17648395445707785, 0.6264351899184788, -0.26897461137535367, 0.20608286614124088, -0.27177484007291725, 0.08746099249308231, -0.13452058397112152, -1.5366152119186802, 0.9770968415104296, 0.5470070836606817, -0.08595708526440678, -0.9546514441894094, -0.42736652722838986, -0.8985179433778341, -1.2566744818960576, -0.6649088675548784, -0.20482690692703812, -0.90252954992577, 0.5489417062750533, 0.40173344052070603, 0.9574023599776289, -0.14280807015430347, 0.6615602995475811, 1.8163161923972004, 0.03140504956196046, 0.5985829006317623, 0.09982926437494315, 0.4858033534382822, -0.37292431835184103, 0.39499939356203845, -0.6454159109171684, 1.1338824072131655, 0.35040933704507204, 0.9858342952001445, -0.29680589599782664, -1.3971079005712688, -0.0033865845073883715, -0.34561035914806243, 1.3931548600011483, 0.35748090195927784, -0.5734000956326026, -0.055006329714045246, 2.626255053323255, 0.8270667545372236, -2.0859288473301034, 1.3779337379875625, 0.4642866788188648, -1.1789771139390095, 0.8160072186689608, -1.1943476704314075, -0.8826803322616555, 0.14307260556492502, -0.48151527466532534, -1.5960564431092712, 0.5169810280136905, -1.3304391864060539, -0.16918534680517944, 1.444168820797789, 0.17042952602569827, 1.662974665295992, 1.308558921243079, 0.815682024165069, 1.3058976525335393, -1.098679971518802, -0.29564472506735556, -0.20872738451616893, -0.2636299428867999, -0.17968205307315238, -0.07612258801821042, 0.08519335617666107, -0.43696569265974056, 1.5536623069920175, 1.341132618953305, 1.3313954992788393, -0.437591511518598, -0.5016099533371541, -0.2012651278516999, -0.8635236644898509, 1.5291392798383558, 1.2871152922178193, -0.0060952915234938326, 0.34492206309101087, -1.7921137573197221, 0.5526035686888844, 0.26373182973940906, -0.9000080673269725, -1.0313609433106798, 1.030019308773, -0.05526967586411329, 1.3214584330854677, -1.13788389197891, -0.4130325337768237, 1.281736628128142, -0.5620179098237963, 0.8247054993092949, 0.2924507494784747, -1.515587095028343, -0.7941719785741698, 1.2567147438255502, 0.2536374126486878, 0.15384868125292336, -0.40730649928074336, 0.12338630565012235, 3.1312624758636454, 0.7884664182084198, 0.715739415706933, -0.5228935717792331, 0.15980562506900964, -1.2724719067821908, 0.7849996407437018, 0.0815018351246345, 0.9427470430476766, -0.7124826467131177, -0.9311469943463017, -1.756459721699048, 0.002041332613828554, -1.0306224945277378, 0.213309042939778, -1.254615392763847, 0.5857501451913616, -0.9694835302375826, -0.8158637317547079, 1.4369626260998496, 0.1683825865150891, -0.3091383873522065, 0.2157951055764897, 1.4271058326044548, 0.1989282572236495, 1.253471445323661, 1.242666140931527, -0.18718128343771417, -0.7209345315190631, 0.8058137060543573, 1.2460204669441273, 0.16191788854246036, 0.7810723654965025, -0.285860974188911, -0.5816613516824183, -0.6920057646784089, 0.23405400882894722, 0.8939557130912744, -1.6436273366984253, 0.2668966654567498, -1.1573888763339937, -2.5118372314896615, 1.8513110037534797, 0.6006204583208873, 1.4782913420832082, -0.6057125115844536, -0.9970799299663285, 0.6428139354001656, 0.19647316943875137, 1.0936373509272994, -1.786254590196659, -1.2692464686900418, 0.3640166056173471, -1.0152901765940867, 0.9050508114937246, 0.5049793366926422, 0.010410442513716256, 1.4047396138531183, -0.7177765256802303, 0.5186288667869685, 0.27522447598605804, -0.5485776031677607, -0.037200051216017334, 0.1004470121728579, 0.673648122987502, 1.2970087706749203, -0.715743351296777, -0.11233762702609036, -0.4408564627352654, 0.8968219958097686, -0.7452675182969721, -0.817844441801825, 1.011262981486958, 1.0306738874016632, -0.24839408241055108, -0.6051100151066724, -0.5580793589530703, -0.31428425377682545, 0.9954397772016532, 0.251870626284191, -0.9383881218547595, -0.46299390832822124, 1.083209344728003, -0.21969951050243305, -0.13123204779946018, -0.0843996035507804, 0.0024412267035731792, 0.09625619479422583, 1.6190983218461465, 1.2022995308588182, 0.9174269525329352, 0.5502348461317437, 0.9972631590052792, 0.26895302262366205, 1.4574782290739137, -1.4401557611210423, 0.27842210139974605, -0.4363889340282374, 1.005941731538379, 0.051875614894113506, 0.6191284457255702, -1.7934218423323818, 0.41422573650491473, -1.222853786423268, -0.632288125844752, 0.3562842656052461, -1.830917611360141, -0.49398001032387395, -0.3030392358544597, 0.16425520814699918, -1.2413660243970674, 0.4796001569817932, -2.291977864747454, -1.3520004077181038, -2.097141424271799, 0.16662658118157384, -0.8589358402454516, 0.8170806241843097, 1.933756597234487, -0.7177105136009707, -0.7982724846627359, 0.781792522481609, -0.6985877418418515, 0.06532366534721343, 0.23267933969145152, 0.7624239328458223, 1.763918040888076, 0.9890034386716929, 0.29600053015337446, 0.9886407934816536, 0.622123891327462, 0.644380260966422, -1.3072322100102567, -0.039145825408620494, -0.5361716486199727, 0.3713903099222318, 1.119034891184382, 1.1055483256769374, -0.9365502125799491, 1.9591709596821258, 0.4329727271477088, 0.9305105262586053, -2.2913214525233987, 0.09541276083362699, 1.2374641941715565, -2.0880067888365827, -1.3803618313200672, -1.3529793173307447, 0.45836690332094393, 0.8271034284743651, 0.06855637747346427, 1.5188727621230742, -1.9693447883169812, 0.8172561677111354, 0.5394239104837417, -0.3335864869562015, 0.06419928780412809, 0.2509208876401211, 0.12201332904934165, 0.8871852043819366, -1.6904541672036575, 1.715330348735036, 1.0592811089153233, -0.040226312945896646, 0.6870376361842326, 1.3407262249112935, 1.348867382282364, -1.443641619744677, 0.7094399843354654, -2.481353415042868, 0.9601940208582206, -1.69595369360524, -1.2534957154519821, -2.0129405863306764, -0.23120957886113405, -0.1040633441102405, -0.3560199970820505, 0.9186007354914246, 0.43686572427122006, 0.17022586740708467, -1.314882604604821, 0.53335175870771, 0.08158289576416955, 0.15258262477239062, -0.47530225901889644, -0.07647453840478335, -0.9701215195356305, 1.2358696945041805, -1.3794579076616846, -0.9424749471570524, 0.595782557053563, 1.2599856273295895, -0.10243939112970828, 0.28297139967946966, -0.2793142231092263, -0.8391756991423608, 0.3493585660059326, -1.4168573197792436, 0.8415762437210367, 0.880640439338663, -1.7751555691965264, 0.14234263466736233, -1.40920748640464, 1.4857534624509041, -0.37417406669223474, -0.39355574630318507, -1.4894913457065095, -0.20371879384110114, -0.7969186903935451, -0.7088139642595322, 0.8681092126497013, 0.36893976074726226, -0.4649409607099893, 0.0721263560425585, -0.24068573566075355, -0.4471920991527725, -1.3488806141540242, 0.39605127835559667, -0.16597555044874074, 0.2402426187623294, -0.61166345720626, 1.3848221486951378, 0.6150217048227767, -0.3075547987139497, 0.5058764154463155, -1.7363340297102576, -0.39889698890219866, 0.1796790991751505, 0.2608007473370921, -0.43088962443078377, -1.5128405520470853, -0.26218757489418365, -0.5158433358775597, -1.71460121733292, -1.0608675695255751, 0.31566464617548023, -1.136299757549099, -0.7941274033734981, 0.9468408392051602, 1.556614520754364, 0.42023177633040576, -1.1405216012981003, -0.5330595658654221, 0.5699577734450693, 0.25114333732702954, -0.6508283689321512, 0.5943482164609196, -0.7675359440737353, 0.9947137942550092, -0.8774456805565458, -1.3516106685918163, -1.7789663120526547, -0.16485175081650802, 0.6248271679259126, 1.5130004023366805, 0.5289822524723826, 0.9572152975648048, 1.4760990951885493, -0.8227313482575482, 0.3375381141143587, 0.5935974992757823, -0.7680753403062568, 0.08632607523191294, 1.8993693513615901, 1.2474749000712702, 0.6234099385837837, 0.04773352552730078, -0.8253487098086052, 0.1250977376200045, -0.4117303290185035, 0.23489219321058233, -2.0148361410927174, -1.004561913377518, 2.2230749983807256, 0.03270869817429897, 1.5843908433238492, -0.5758921294194986, 0.758274856542928, 0.02735123371684574, -1.22277060537814, 0.004937709089641346, 1.1442907475891277, -1.0820637241159201, 0.7121243109535634, -0.4964758728093177, -0.7474369888601239, 0.9501406197265122, -0.8388600896111597, 0.6962728322953206, -0.8277582571519901, 0.038604029225854646, -1.2208937084505949, -0.8323983515344741, 1.1720118383519955, -0.6152104206623629, -0.9446562698220076, 1.4867860635755286, -1.1213003309166705, 0.5073231294187945, -1.1109061342145918, -0.30482645036753653, 0.6931461296320889, 0.7135340888659133, 0.041464039001004024, 0.40613919478622346, -0.29505393677704356, -0.21854025744660183, -1.2963969989954593, -1.0676858847381605, -0.2792747410610254, 0.1864085262831485, 0.9664941342819845, -0.16775185015220637, -0.08648206563526267, 0.6698138385125225, -0.4817602230026884, 0.37798132000142304, -1.5692573942415522, 1.3030452076882328, 0.3865689158031252, -0.05502349348211012, 0.08077103701684588, -1.1104379974996086, -0.7722405481165687, -0.1636820555127283, -1.2736112627392924, -0.12526338474382676, -0.7412938736558281, -0.47226065287123675, -1.0040410765492953, 0.10945935019966362, 0.3758307724235294, 0.16117175345769919, 0.549632025937132, -0.013176812335767096, -1.1231065637168531, 0.4538840271736236, -0.11520970164945712, -1.8317939584440104, 1.119557726260329, 0.48236377552108833, -1.0732199087155327, 0.4475018197687229, 0.10768411730144388, -0.8533233023574672, 1.9328170194482213, -0.5155235221164426, 0.25155189784706733, 1.4353499309223, -0.8863641820695671, 0.8027127328921887, 0.585174251390658, 1.1046073804461325, -0.6597500619357983, -0.545301789420151, 0.5109358844715578, -1.30099799122912, -0.23307472141951444, 0.9203459964087621, -1.566021195617618, -0.3566411911885103, -0.556683759683479, 0.19565265887968053, -0.12176819997644672, 0.5113380103055816, -0.39564841724903804, -2.1305552516371873, 0.6838011692590376, -1.2004733166432575, -0.3466703684888874, 1.5211839328742223, -2.042305718782283, 1.3635213973273936, 1.7142020952362642, -0.4215352676094109, -0.31145286614408796, -0.1745345334183781, -1.0439899040647616, 1.4727341747924139, 0.3032812925277253, -1.0619920647824646, -0.3643313503809822, -0.7855228319795625, -0.8370663911494525, -0.5955125181322705, -1.3222678540159731, -1.1992545091655857, -0.729320387406404, 1.924263012156194, -0.7272242320813583, 0.614927852849572, 0.8313067518246063, 1.035481751183237, -1.0058286388336362, -1.6165782601105776, -0.44276961679544985, 0.5388645935159444, 0.054629960386536384, 0.8505799704085459, -0.5633661806030275, -0.04529316853617519, -1.178911846911163, 1.7722335885186062, -1.4839538244279862, 0.7581929541077477, -0.09572598571136624, 0.5523038712249142, 0.3284948742002398, 0.309084466523787, -1.0453592097401563, -0.04577218636394514, -2.1534096543208943, -0.9983019832582843, 1.413731146607332, 0.8211780964259177, 1.6555456881915465, -0.9792085773014559, -0.6662559452458241, -1.3787017636831163, 1.97384836234384, -1.8385118814084531, -0.5954603930703893, 1.2002041767083633, -0.36080662060944274, 0.3817559611544441, -0.13274919569707375, -0.048968090542403926, -2.4548667877004533, -0.9055463818813848, -1.575066346519872, -1.3600012742337977, -2.61731809176378, 0.5540764725986836, -1.9208748449761528, 0.5193574782948218, 0.585400082455391, -0.5194567586399236, 0.8168451250727867, 0.6697613449049589, 0.773862325101986, -0.1506610855666946, 1.013852244145575, 0.8210579848817755, -1.1030804805942622, 0.2782474520730671, 0.8846394303061049, 0.5019850938404564, 0.44939401527900064, -0.8681531839298193, -1.3536081771833053, -0.3418150489317994, -0.8028842286722306, 1.3574526575924815, -0.9083388070325396, -0.4232800967818052, 0.025210105327057367, -0.6994038108894869, 0.5465177926577712, 0.004187355552417105, -0.009842405310752162, 1.287978069328185, -0.6004231704512444, -0.3543020588627821, -0.3875478198534477, 0.4707510211066913, 0.10845540777713578, 0.4543574559837307, -1.6268780847118838, 0.5520740469897315, -0.8529820794132325, 0.4001662873107518, -0.5032366027568954, 1.2706074892128538, -0.5071991655662805, 2.346565011072928, -0.4909389355731273, 0.28445383587457185, -0.895104594284786, 0.7632425742463081, -0.5650196690259787, -0.04275367403956302, 0.8625510849848947, -1.3542527075529494, -0.07584239520885933, 0.6259539736583386, 0.3423345293973305, -0.753200060308701, 0.11774145517803805, -0.4411414312076942, 1.611184122841528, -0.17166379263698342, 1.307206326352184, 0.4281348125738574, 0.8775968095085401, 0.840917409537154, -0.13721015058101194, 0.284046506565329, 1.1707620160682237, 1.1505036425030657, 1.2733484567443218, -0.7752320356308758, -0.0789142726762022, 1.6850101523935361, -0.03681591766248546, 0.11696934724640537, 0.47926944715341785, -2.1186872472141594, -0.33640057790526084, 0.5679583636452343, -0.018763889449308582, -0.1015195184702871, 0.3456639673873178, -0.21637130099965923, -0.27050160759181746, 0.2701331588144949, 0.7086097265215844, 0.27533016476119526, -0.748380619059809, 0.909572506691691, 0.3642876503116198, 1.2039897976429026, 0.2058335119435637, 1.6304667004656248, -0.5417504465778792, -0.5134773032989143, -0.7254895686553023, 0.7938043654920911, -0.1741207738897495, -1.0361537800396001, -0.12169477911465673, -0.2857363398166991, 0.5537494726824571, 0.37080739277485614, -1.2692349047019211, 0.03115803754778601, -1.079879281820227, 1.8833392439298102, -0.062467571764671, 0.19813116563255953, -0.9804879922296549, 0.05319141447221575, 0.1306424245641522, 1.032598108976261, -0.4318756316812124, 1.092280803586374, 1.2611717366337616, 0.04036359177926307, -0.7466414476483463, 1.9073994360323447, 1.214326465167174, -0.09647161101125001, 0.383571600396965, -0.07514302673276893, -1.8839850481329146, 0.5896588150347848, -1.0513665651043187, -1.9541530427578961, -1.6961295177578173, 0.20973736587495492, -0.5875466125366325, 0.9307673963659118, -0.09998546260586526, 1.8037096949342726, 0.857619046268409, -1.7098490577868999, 0.21799122131318516, 1.3651979977627116, -1.909356658947237, 0.7458598437872517, -1.712500409468494, 0.5808342917286834, -1.1842460112196436, 1.008470065908122, 1.7052280091697336, 0.147706410277043, -0.4996708152987533, 0.7076739923154143, -0.9012194664220253, -0.9963137673617272, 0.3647338535617521, -0.6740126074311369, -0.46015621260898987, 0.25733753912776025, 0.6046916036567364, -2.115353863058309, 0.18279369181675087, -1.0567594389738935, -0.4024277826500753, 0.9162381571181097, 0.8388451780027409, -1.0926114274936258, 0.407529613800875, 0.3657189402756923, -0.3452051347603412, 0.4372587169139656, -0.45870035144510063, -0.6336744055457807, -0.9642285249186529, -0.5009817107440477, -0.5588805077409412, -0.4837359757809615, 1.3612722735563723, 1.2567605592596667, 0.4931362444504208, -1.1761465572716994, -2.4344325603337507, -0.08302013114855043, -0.1386453573044227, -0.5435768213453211, 1.458527717692667, 0.4598746562864162, -0.6838987191390572, 0.8589160578196771, 0.35522803694686783, -1.240323311724857, 0.37486891733353495, -1.0739188095534664, 1.3836229314176092, 1.2881969861609468, -2.466328631613842, -0.23125786322421177, 1.5597697681187908, -0.3371707558111024, -0.5210576329645105, 0.6192906568035073, 0.39547310990996243, 1.9993786140061431, 0.4341531355465387, -0.7117095635184806, -0.1573347864086562, -0.5559727012263944, 0.30985065156242153, -0.23057049731614113, -0.17622248659301262, -0.5893698718812946, -1.8060738003124044, -0.21580239223331232, -0.3033616884427408, 1.3785237946333662, -0.5395744037835224, 0.5438401464290471, 0.13176201185510505, -0.2125787026132888, 0.8305057195683133, -0.3012513054828209, 1.2947986065668153, 0.5074625883858696, -0.27909115627160047, -0.6192074944618492, 0.12234978051399602, 0.28699684515720686, 0.8294181501596767, -0.6350082033863496, 1.4610610890898281, -0.4709578349597248, 1.6093427642893685, 0.7043447157627708, -0.014394409744789208, -1.8045059715616987, 0.4489935976373008, 1.0352107657994325, 1.0338843461243212, 0.4711816874995842, -2.911220525403828, -0.242279600359512, 0.046976603731761726, 1.1556921865667542, -2.0840113074896562, 1.572752865583476, 0.4696095178037401, -0.16630798519709508, -0.3661401844250399, 0.2607168338037121, -0.5031567939250439, 1.9597717050105459, -0.12282039694211311, -1.3757046993035744, -0.4303883189201516, -2.778212108745076, -0.6982350362133541, 1.105886794798752, -0.44826055922632296, 2.2591153095578393, 0.282661133368376, -0.585467633307233, 0.413703247773371, -0.16803377224049154, -1.3115504819938413, 2.828428631993411, 0.04503315975820768, 0.13381446036830696, -0.05157656450596146, 0.10842668504932333, 0.43835434420966957, 0.3531237274631874], [-0.5807547480992125, 0.7214157784949302, 0.8706956125274952, 0.6108113352096285, 1.1680834215029676, 0.7906718882173244, -0.9321902515610003, 0.861672231533758, 0.8007791119425894, 1.0839672469436825, 1.1935022993124522, 0.1521930603372023, 1.4773448318227353, -0.819196776571581, -0.7631217458910095, -0.5661289316243426, 0.0017471396601257132, -0.9677341809227622, 0.9543029675303524, 0.09347625488445514, 0.5098217515235894, -0.2386109061242815, 0.9924702199242192, 0.020344292491262322, 0.20363626170329835, -0.1759427709486036, -0.12837949462309375, -0.35603414207693135, 0.5110987865207788, 1.1864098542029209, 1.0156344325497986, 1.863137176244175, 0.004932989846632818, -0.3872498219979321, -0.37954612354530304, -0.33815767556566234, -0.5753615527427952, 0.7108995599981168, -0.3712075878062627, -0.661384978336337, -0.4710157968747949, 0.16989264404513826, -0.8766083084817105, 0.6730594975318058, -2.4425838466566856, -0.3117977223659991, 0.8612174803656332, -0.8900936254575108, 0.3089793797745773, 2.1524741111053296, -1.252018633759135, 0.506977680420406, -1.4732668624656544, 2.4239310064228503, -0.003430121486375298, 1.5971802809659021, -0.9545041976505035, 1.717137418206701, 0.9068560257658146, 1.9401575317904398, 0.7014563327252351, 0.48802212824839397, 1.376304650782659, 0.1571845174387248, 0.35617078636918126, 0.3492081170289736, 0.5845785934176058, 0.8627782725284692, 1.6837668137682034, 1.9989998212405984, 1.5964211429516206, -0.035222762836405686, 1.1701947806810045, 1.118551449581829, -1.8800445631233058, -0.38254344529538187, -1.405810253812544, 0.43854150038131756, 1.4407057119907005, 1.047444136346517, -0.8105001502119107, 0.5308548370972217, -0.31698448596561746, 0.43585755869285137, 0.2920389045263751, -0.3735499308348141, 0.53516184060087, 0.6950792149491025, 0.7221570110474788, -1.1487126984755855, -1.004847130671185, -1.0661900531835289, 1.2239173537537285, 1.52268645548746, -1.9357369297222828, 0.22022543466437125, -0.3469179847061759, 0.37163181211579244, -1.2450247753512313, -1.5718686296629396, -0.13327900753316593, 0.39177939015927754, 0.24910673433425848, -0.45928724815856625, 0.5133331959621349, 2.999247070130079, -0.6241503889953777, -0.4248768139120291, -1.2029336294289892, -0.0522380746405569, -0.5434671779913434, -0.369330427073119, -1.8736869118140185, 0.9563288902600057, 0.04548031873690942, 0.11175289661431362, 2.370155275856031, 0.8913304995175401, 0.5832070145476788, 0.9332152157429802, -1.5143422600996088, 0.4283335133173395, 0.3831120710204632, -0.19576878260177458, -0.11472307110533907, 0.14587980551986066, -0.5222901618561901, -0.8398646207122441, -1.7281653029825619, 0.2075542127157161, 0.18035860042799465, 1.2552403750592822, -0.5624935289825249, -1.2420672223056086, -1.827849414776737, 0.9277885566130474, 0.04520891896571592, 0.38729819349247185, -0.19079585398340385, -0.5063242107220428, -0.8269026636377215, -0.8257832685797697, -0.10842881348729745, 0.7685419663890786, 0.42541841884658904, -0.3962242416807463, 0.13988667077618758, -0.26006515664872465, 0.935146395372895, 0.2533793552806693, -1.8622076285170093, -1.1301400638009231, 1.1930274990230376, 1.4473040828511012, 0.47714838204597065, -1.2893923430763607, 0.9397087832687118, 1.0029400798099946, -1.0964618744119163, 0.2516225609231022, 0.9529668190043876, -0.6940731000128753, 0.5421479663158512, 0.6384371806789155, 1.2736154194213045, 0.2642573136527699, -0.8408507908983378, 0.850033989734353, -0.47671388993900804, -0.4556959862383489, 1.2997906502600387, -0.5169497218497762, -0.766015391832936, -0.4036005007869313, 1.8356723866699785, 0.5596102346342527, 0.2158209043716221, 0.7621751480929609, 2.443754643307861, 0.3928431895109881, 0.3865792204523684, -0.8384488275961204, -1.2701484390192213, 0.8954550143650374, 0.8637640300518626, 1.1469598164546548, 0.9905464259016694, 0.14885479595705073, 0.7304275476303685, 0.0455826008887514, 0.7935191762963079, -0.06808916242400741, 1.6096853658870571, -0.7920761123475456, -0.7037187005186635, -1.3080913751114898, 0.1560887001123089, 0.8288869429230793, -0.24763473246702494, 0.2269272119188714, -0.4190264179704851, 0.14551730946173183, 1.2408285663624061, -0.05839905084267442, 0.7404229924020032, 1.756713327373715, -1.2120443979863729, 0.6814537105046797, -0.4319490667830683, 0.5547293672328796, -0.5932831728764553, 1.443290776307497, 1.3261411863000538, -0.2538235402698488, -0.06303767218461784, 0.4097322428400247, 1.7927863798676804, 0.4775412708517337, 0.09362821526431217, -0.1442630373857501, 2.0279391942423217, 0.6424478034465111, -0.5629143403119298, 0.2844554801618449, -1.0755811393098575, 0.8732137014081948, 1.2609233259793586, -1.4491390502692933, -1.0354939680845707, 0.36059279912824893, 2.991248107421425, 0.21904321450050904, -0.2459855999759617, 0.6449954169544369, -0.5247795986860276, 0.1358474124947709, -0.9835942264581368, -1.4822871323575793, -1.1060012537963086, 1.1219499405597966, 0.031020571289287844, 0.09357887353462266, -0.763231004922729, -0.14464361963550587, 1.9593373738363982, 2.310352307456916, 0.22412395970359547, 0.6767861260711117, 1.5629348353341226, 0.1771531759683179, 0.4027925250972486, -0.15553845392245738, 1.4748474899632678, -0.3988575336862463, 0.07904217330925571, 0.23826712388939314, -0.4060171006035846, 0.19379019472961287, 0.8863426056723313, -0.9158534900104783, 1.5690422314060581, -0.2738563044169993, 0.7087802002739145, -0.8856724048370953, 0.12374152254405017, 0.8655343092900809, -1.7133294073246317, 0.3403762765762517, -0.5887650082586338, -0.2733073504263377, 0.4808519905882556, 1.6720626005285755, -1.056368672876828, -1.2742044452863304, 2.6931912663436153, -1.0914863702338764, 3.488799970281886, 0.5500597982271401, 0.10251704691819896, 1.7054678791194113, 0.16991641562355816, -0.5476485643770292, -0.8375539201015015, -0.6756320165743371, 0.42927202736686504, 0.6266594461789048, 0.6639530628947107, -0.8556740282348572, -2.9025782534306463, -1.2832560995772202, -0.29248749449901756, 0.02342161778154525, 1.2726351117748518, -0.031638915128147635, -1.5546111953062949, 1.7500912079921442, 0.3972958288973965, -0.3430771447317372, 0.09971743758145254, 2.4344020290098953, -2.267183617407465, -0.21899682715978439, 1.3615586701926485, 0.2675251813629122, -1.8324739500430676, -0.5146851395217373, 0.7534862605918947, 0.636086565303551, -0.7095867935411809, -2.2672075007453665, 1.0302831420917533, 0.5818152266977703, -1.1935775461510754, 1.1086779045808661, 0.03748956366741776, 0.6632166184528681, 0.29085577994910444, 0.3664061389252893, -0.8971303186847869, -1.8101227344490909, -1.806546385475046, -1.181920604685232, -0.2955997373866134, -0.39557640342469547, -0.10038713662632077, -0.17836444196190218, -0.7974665196754279, 1.7965268952570999, 0.4076814124179606, 0.163613273705401, -0.5502609645949139, -1.4962513379522557, 0.021255109621216055, 1.1018194291756098, 0.32164871097440745, -0.05916172686901329, -0.06405694441558483, -2.275112584738535, -2.030823309555727, -0.2813803345640539, 0.03605940908061453, 0.667991034478942, 0.2658066266280789, -0.30457769250226063, -0.05179849929965062, 0.5704445397676784, -0.29065947961166877, 0.612997131314508, 0.2018548117452551, 1.7111390206042445, 0.26896072951431216, -0.584271540277418, 1.3590714974314686, -0.9835347396352506, 0.7566931449489941, -0.624277040226557, 0.6444697392069264, -0.7946026166260272, -0.1298912160209133, 1.3095895007679645, 0.7583870639252814, -1.1025002668285078, 0.79097934033141, -1.1791842065559337, 0.5016111294798373, -1.0721324450837404, -1.1119016585662853, -0.07304849826817049, -1.50932041267843, 3.3026493125141476, -0.982035800615935, 1.2586882363220804, -0.788071767204334, -0.31936700712086125, 0.6515870363921047, -0.36903934689971235, 1.2877719530154117, -1.9002712655401277, -0.9055069847552268, -0.5208096171619389, -1.7951436290966911, 0.748610053173873, -0.5216550384078472, -0.7261919892721124, 1.1305568523764291, 0.5690421886910023, -0.8252655471219994, -0.09102383032976419, 1.568437227200224, -2.411021115001821, 0.40557224412235393, -0.9450974874231278, -0.0002971038703272384, 0.5474433132852756, 0.6850878115452428, -0.42038492155982654, 0.24547719149196576, -0.5520923391742909, 1.1328853475545162, 0.47419006129107166, 1.6068949085872422, 1.3362164040591762, 0.07358773240977289, -0.32685887821108883, -1.23245609612794, 0.06873221077010412, -0.9443103369666611, 2.040445380680275, 0.16717846072601336, -0.2568361762229188, 0.2429907184834616, 1.547239248578768, 1.1744232199641509, -0.07322143740906295, -0.7262033874868963, -1.111529758826826, 0.04116660627121828, -0.21910623217085787, 0.4371064441489545, 0.809100985275702, 0.1785501559555998, 2.4218871745760038, -0.448889231834392, 1.2567306385181891, 0.46018819325694754, 1.052801684735602, -0.1396850495506524, -1.5706272780186268, -0.04227877334263709, -0.09894654744488911, 0.5519960005342633, -1.1633175944126455, -0.3014643257747528, -1.3006719512239389, -0.061724300465046573, -1.5377177079650146, 0.6236692615708275, -0.2687489178809391, -0.3211980026169065, 1.2854930563665956, 0.24989241561157544, 1.1228322590921713, -2.066144765489932, 0.5724734495841725, -0.2807368351879453, 0.10323779507503669, 1.336190669278738, -0.5249469013846568, -0.11070222604046556, 0.344659478967793, 0.869646681247967, 1.181525366848847, -0.39180819571113373, -0.1161159653276311, -2.0673065622843487, 0.7839438338982772, -0.5213146883542085, 1.0792338999998934, 1.37165989890325, -0.9947698521889976, -1.2353035095504592, 1.3695888466707362, 0.8951032883266613, 1.1059868139055433, 0.2500777973812381, -0.5866950287024242, 0.3192264684983394, -1.0264211171559607, 0.5192209125112319, 0.27086487935752696, -0.1211415140044207, -0.25802630192427495, -0.5644272942994664, -0.46410174182973785, -1.0951219424400485, 1.5532248244292701, -0.3156113129868764, -0.9716937961943931, -0.09948576658175114, 0.6417463665634041, 1.2547403524625267, -0.09517602232385909, 0.3577897396381266, 1.0614221861779483, -0.6317770055225946, -0.5859647787201625, -0.7210606140930135, -1.6715048961116648, 1.7361153384182986, -0.7218939495446843, -0.22018803836512327, 0.5993398099843357, 0.04835171719475529, 1.0661526047607959, -1.5598334523828083, -1.4579181536587316, -1.9075909927893087, -0.4244023055151795, 1.636024285160877, 1.4446958531061442, -0.4487672396241017, 1.284259542182658, 0.760686679500053, -1.2716131254449083, -0.512983670208136, -0.014230785328975698, 0.2656540657510596, 1.0632237325379184, 0.03948880861939702, 1.0801427442770442, -0.6872385528377886, -0.8287130739331883, -1.6818873919265047, 1.11976366351901, -1.582114201548432, -0.9665784238905699, -0.8840340328979472, 0.6389310614794274, -0.1649351590641098, 0.8986338313751548, -0.24583840575272645, -1.191914502262552, 0.4177701331964703, 0.15866082522394104, -0.8230644334842591, -0.44212693808853676, -2.5714681128806762, 0.07457700626236095, 1.0233934774096658, -0.6283701806833181, -0.7942673151852301, 0.8578910880572858, 0.2659891689713204, 0.5197042765866948, -0.88099316281499, -1.4174963982179276, -0.9298355422644803, -1.7082097814323798, -0.689534244908005, 0.1331508633289555, -0.5840091591616209, 0.30250933989653594, -2.7686118563691147, 1.5472936504364063, 1.9212031271359407, 0.20715652927142203, -0.9680332229259814, 1.2224832157355237, 0.7880961644393701, 1.1122427014445684, 0.2405159460061285, 0.8688434277293279, 0.2075209022150608, 1.633310040905177, -1.3250489498424527, -0.17337913669169516, 1.6471294603552913, -0.796749993738348, 1.0232657750564245, -0.0885458748848823, -1.1241301328265294, -0.4290697012112938, 0.816980497946032, -1.2775581937932425, 1.3275077068067658, 0.3907605198475425, -0.07575112024695158, 0.5811414292167847, 1.6999271234136197, -0.05973579506633689, 0.4792728298434493, -0.32832097290660445, -0.4544714411694366, 0.35159560443853255, 1.154093691251863, 1.9990049307199669, -0.26790232227025346, -0.6005820970646085, 0.43948837521805323, 1.653090019347779, 0.9936235810429226, -0.08701799916024806, -0.79712022073951, -0.5362148490481077, 2.4914677931482743, -1.3582614216912023, 0.27389414413164775, 1.6110418488345069, -0.247667132439354, 1.4616003293899766, 1.820586660976219, -0.2668915929362736, -0.051755602306137925, -0.07733960642897221, -0.7185915303297157, -0.4161047594862603, -1.5055330201612434, 0.9003647029092791, -1.794366752096019, 0.9861712965177438, 1.3904204868234598, -0.8741819762564209, 0.8550995345288721, -1.2151614982584695, 0.8273700742285245, -1.5476606013347773, -0.09949533371957806, 1.0386169859115815, 0.5161696687419585, 0.5016691307923702, -0.9355328000870023, -1.5367313062830246, -0.760513722699331, -0.5290415588570023, -0.3940781280563919, 0.11866998135131483, 1.7769795327580677, 1.4091406707942828, 1.3226834762439998, 1.0499421609225599, 0.4025468624852706, -0.7265572482357237, -0.025060053237037853, 0.0451188411367832, -0.9067256514511354, -1.219590813650068, 0.8161863545276951, -1.4104564368220307, 0.8626401078449717, 0.3456828778944934, -1.2175025134658708, 0.11741894718744221, 1.742097305009704, -0.4045603494359799, -0.4644374480256317, -0.6192777710082752, 1.4735442864017059, -0.6014128203383107, -0.7696323774247767, -0.6050838158801657, 0.11212457707485467, 0.5512760270885584, -1.2384807272796146, -0.443896597900029, 0.2636888503865686, -0.2879846916821102, -0.6521598358075198, -0.8828641372892403, -0.8009066666298038, -0.001574040730334214, -0.4142947590601346, -0.11928319177954909, -1.4388851939330474, 0.20200851556310084, -0.26015358821409745, 1.7511100598666314, 1.2011086112671334, -0.3432386841337743, 0.5296738395586345, -1.0323680621710725, -0.7365535126270027, -0.9580108370888424, -0.8951162778135717, 0.008680195454524873, -0.28181901249931324, 0.48930223523918004, -0.7907669487762363, 2.516489282988907, 1.2712216934430771, -0.9360328985425833, -0.6046821382430619, -0.23714838811971536, 1.6708570393034616, 0.08395884492267351, -0.21851433708594883, -0.7520618655524131, 0.7917100311004927, -1.6656008804383315, -0.22457670012366698, -0.21432258025297704, 1.1004794905678874, -1.797207773918774, 1.2441081136747756, -0.3977252769724771, 0.5803720398618244, 0.2983208109005668, 0.6006025469631051, -1.389334459237887, -1.162868865605794, 1.0373578847365112, 1.0454357410930937, 0.9188302555646943, -0.47489087477933933, 1.1436512452580676, 0.8447959469303075, -1.1320538590151432, 0.021044628624096333, 0.04834842481869709, 1.7203766390851074, -0.5562817940851201, 0.9095482264952267, 0.45838042642624727, 1.5037824108867421, 1.0830264325094083, 0.12439191785746842, 1.05080541059223, -0.2585461340696426, -2.7782709518952107, 0.05727424234305271, 1.2451960751557094, -0.8446524283366741, -0.6764612793537196, 1.6508248266980452, -1.2096118201592851, 0.08154850309486633, 0.37196444331476913, 2.1078337746568705, -0.17928706273519188, 1.3055983137457554, -0.5350437513695736, -0.2563045312685696, 0.657645487161178, 1.1195720125842157, -1.0024647874769408, -1.1564287837199163, 0.8115429023939155, 1.4677343514529644, -0.6374485166031795, -0.4918996113764826, 1.0589548763413676, 0.5081178987053859, 0.4932965056391693, 0.15544797117429976, -0.8389310432769799, 0.6016719565444355, -1.4526758029132765, 0.9575268860076889, 0.8981269001159794, -1.1137338893768416, 0.4013215359260951, 0.7316535259894421, 0.9466871507641249, -0.4349502104843598, 0.11682898185473484, 3.4673985771504756, -0.8091381942165994, 0.4126966509915149, 0.44969967378333475, -1.653446250225445, 0.35786245290138435, -0.4068975952785086, 0.04182262047034848, -1.599047335854594, -1.305837251851945, 3.095398038200127, -0.3227808376412207, 1.2815487661760916, 1.2970545996040215, -1.4446882384412685, -0.1404610768119203, 0.0759243840742386, 1.6752439940746509, -0.7584577621814146, 0.6115440578434995, 0.3669411434942141, -0.7330949485765744, -0.5378147894943586, -1.6093463966959056, 0.6465593683953934, -0.05575456602185063, -0.33162412859452584, 0.9928116221859808, 0.6398445754288825, -0.1233078475225234, -0.28138826629698815, 0.7191552175382262, -0.11303778572397388, -0.5827533147400886, -0.9514170690234012, -0.14730567116786525, 0.664427171251507, 0.6070182812284595, -0.5432253196273332, 1.1478992271371493, -1.0514708226161384, -0.0021448164819872235, -0.8816250192987659, -0.5738681439463562, 2.175407317728132, 0.5752114372426215, 0.2609766494210263, -1.6994734343218443, 0.49130388605948383, 0.464513496968862, 0.4144194644704997, -1.0217592351321096, -0.960243639991778, -0.3287510927964014, -0.7958422052448219, 0.35881647246380327, -1.2747531240290013, -0.058678456889157536, -0.8741694228836513, -0.9566715493352813, -1.754457345680561, -1.0373770715398778, -1.7174097705259215, 1.9577344385687, 0.33333149621685015, -0.00996504504353028, 1.3492876693253473, -2.2732062062644545, 0.7298251633291988, 0.17225282941557798, 0.7614022580780732, 1.3222654982481887, -1.6602001912254498, -0.14762530139386235, 1.534741639918392, -1.3442958501798006, 0.6177531298754305, -0.33940034881035247, 1.2148927229621567, 0.7869343374526042, 0.07747870541853503, 0.0793037789133915, 1.0475940818510312, -0.07431729030271955, 1.1753146019995795, 0.015550181563284905, 0.03820327661855594, -0.18167046072525367, -0.47037727994171324, -0.443749218934204, -0.05159843824904699, 0.0497216750589856, -0.09725619017372293, 0.8722683236910757, -1.178884630097332, -0.07231982565476712, -0.8556599820346469, 0.5657782216094979, -0.1362365933003714, 0.06511851046791638, 1.242716836582555, -0.4738655272920265, -0.02692946859100529, -0.02778642058042454, 1.6685772745294265, -1.9962108016475206, -0.7523629245555139, 0.8749790068519558, -0.40167132604290706, -0.8889277017133183, 1.4745610344082807, -2.097856659190169, 1.5232845161076092, 1.3635360870489914, 0.7227299122368871, 1.6944508311604505, -0.6822185377301487, -0.6150513618465645, 0.39660605454292697, -0.900758659844071, -0.5547699231452401, -1.103614355404575, 0.5502308389493276, -2.2691244976131535, -0.5114991814774401, -1.4569704260373002, -0.6745103001102762, 0.537570763141357, -0.4632984639180951, -0.8402718195261745, -0.43115049003768346, -1.7855950086125336, 0.9351856381972881, -2.0464141452690625, 1.0506463367369954, 0.40389454667469277, -0.4767188083955786, 0.8669405279895723, -0.6132980197227652, 0.41186518754170737, -0.7740715142983499, -0.3182380486842295, -0.414571754086496, 0.6393795683143618, -1.1462586198775078, -0.44856580886132574, 0.12969126248506332, -1.3249428077951837, -0.032912321974913505, -0.18138825388023708, -1.052289571376085, -0.2167268346409288, -0.1996957361325018, -1.6012095785342817, -0.609216136162696, 0.8646905667240041, -2.2983294902355023, -0.4420399272948562, -0.7411469087731096, -0.6621563585439633, 0.33672273194739055, -1.173389069886225, -0.528323972831101, -0.926149252049513, 1.048633406724352, -0.21041475942942933, 0.9448304211925704, -0.19591722925897123, -1.0279735083467243, -2.0064715125132175, 1.725925280168937, 0.408946347324228, -1.6474449806472253, 0.39332791653562216, 1.354225035476267, -0.5097630216819493, -1.6358628864456837, -0.3191231040790099, 1.0973804154374514, -0.9783568162774289, 1.018337723472801, -0.6835497320438204, -1.2571454436424592, -0.8576083865840901, 0.4624229882288699, -1.3082501780556306, -0.3976577910654388, 0.6153552695561358, 0.05903877064526968, -0.038067647716401434, 0.04569003140942319, 1.2086029079099034, -1.0501546797514643, -0.49122810981140147, 0.5378655106490081, 0.4367243693742753, -0.8848649816817448, 0.3972955336187814, 1.1788459831389007, -0.6987547764863165, 0.08819130993694427, 0.4020571142433731, 0.850520377077072, 0.08972015607603913, 0.8446696482509154, -0.6497091488809479, -0.42946742043641645, -1.3491313605386215, -0.07374280104475604, 0.4692360587768463, -0.7061033162177485, -0.6328674502622819, -0.06969082835974824, -0.9060005522425812, -0.05426405689661145, -1.5377389355224853, -1.3633304908131902, 1.2425667967807126, 0.4399221113558538, 0.4306222659299936, -0.3154105162888932, 1.3411797591768189, 1.4623464665708652, 0.3368004582694204, -0.7568797414287102, -1.2490882416906988, -0.5187066114764314, -1.1507660229886965, -0.5394882014820852, 1.1869629334815421, 0.4756949468591243, 0.9477730350314306, 0.3581860301078111, -0.33431401509735914, 0.3408708857352756, 1.9262244746853787, -0.14079796213181733, 2.8080140960291153, 0.384313308574642, 0.17250243687708922, -0.41010302945027055, 1.1018691254375625, 1.0332358504220516, 0.894959014380413, -0.6191534497017128, -1.2254039299298303, 1.6764984322040173, -0.37300144862174656, -1.1440747183543347, -0.9684198529165472, 0.3861845348559197, -1.1547177243871827, 1.78440784387164, 0.43914660325169286, -1.619586111251098, 0.346242717769507, 0.8088478928689966, -1.1829326666673659, 0.4716284846670142, -0.37572514279449293, -0.43041292517860286, 1.8084311668921966, 0.12498887625841819, 1.6014534857534222, 0.43627154141095564, 1.4724063551331605, 0.9151245211743463, -0.10275180573718654, 0.9550215658343298, -0.45863145915192827, 2.3928246266033035, 0.6488053027890932, 0.47308858843863677, -2.4469162663142225, -1.2661975460048296, 1.0197554857094784, -0.8733286391490074, 0.6173122158540785, -0.10799969926171606, -0.2364107221735881], [2.2126686005285077, -0.869342654255598, 0.08741527222925624, -0.1965896251537736, -0.08447104203626267, 0.5336917830951589, -0.016754173139018582, 0.927582072796539, -1.0311076656783147, -0.018465425593905002, 0.6780639455613614, -0.9371987112950692, 0.9929214864146698, 0.6481206938117952, 1.4189376180693853, -0.9577894513640614, -1.0758679432211915, 0.21440974327879636, -1.9267598241895771, 0.2596875378173208, 0.6531699853793945, 1.3771361694394866, 0.08365032963938758, 0.37518120272597816, -0.40479225014271847, 0.9326920959555389, -0.009483015724913965, 1.0595103721802865, 0.07735052842570643, 0.5662896859210255, -0.47962788415908786, 1.0647343454115599, -1.0380691920175342, 2.3688275587500573, 1.2215826820216629, 0.7865930738861986, 0.24195944992357574, -0.6303370964523455, -0.4702168656897841, 0.16311102497021746, -0.3141183295097708, 1.6499821913592556, 2.038250137883697, 0.10727979549388646, 1.4333925525792677, 1.2945333666504952, -1.3395710771386065, 0.4090630367662962, 0.5510176119790491, -1.2782335305949442, -0.7077343140837257, 1.3920408906205706, -0.41835517034370956, -0.27659896406811385, 0.2335976141315902, 0.11815166978742538, 1.1436249723211387, -1.4029739740205422, -0.3623401257227419, 0.7246197416784869, -0.5058410659460292, 0.9639331599534006, -0.5645715091471689, -0.40299873058160773, 1.3289957455384929, -0.5409201092468995, 0.41442908706841564, 0.7392072141645483, 1.782700222862286, -1.6299041124117721, -0.22825824900038075, 0.4948287181682308, -0.36202888283746915, -0.410401593617877, 0.5883239020759456, 0.49919928199739394, 1.3904756472835162, 1.9755878519924637, -0.3148776976136496, 0.4387446465746378, -0.832233837372299, 1.3182842525898784, 0.6287156577173582, -1.5364390993030301, -3.1588652485766358, -0.2944375175001281, -0.20379657490115105, 0.7146915032685773, -0.23584369915796224, -0.468679953495649, -0.4774897637207801, 1.431419692716088, 1.5493683157134162, -1.3947887687796967, -0.5114237782955781, -0.19863937841016868, 0.2940784942538527, -0.43281699368163506, -0.7732110519919161, 0.3726852080123329, 0.4999419663509101, -0.44619989548666994, 0.27267491048862086, -3.017603860026709, -1.4022903923343077, -0.371009418247901, -0.04976028678807804, -0.2230235557344129, 0.30474575602558607, -0.12205675774054695, 1.249965190027681, 1.311829118154512, -1.4303389998149665, 0.32600315903833066, 1.638546111979072, -0.3591177472189751, -0.22458880519665197, 0.9684984254175555, 0.15520226514866303, 0.8149421919403692, -0.4100562262363084, -0.518120382312741, -1.041634949633281, 1.6252439197194486, 1.1187153811317847, 1.5390678133961262, -1.173310672602153, 1.0416381667514956, 0.6558660929150214, -1.0905965846579888, -0.6514520101870298, 1.2564863377917468, -0.45673090232765995, 1.2499387180397905, -1.6644271925524299, -2.089849123163721, -0.22942000912820773, 0.6404584752128318, -0.7044000118036262, 2.3468719071684125, -0.39562184973512543, -2.055367197800656, 0.3210703416458141, 1.9276664309313947, -0.06746961224283775, -0.9792329820466924, 0.884037322934726, 0.6917164513881471, 1.6418815900980508, 0.5025790535504149, -0.7758888897652897, -1.0582543780401927, 0.5996607301954276, -1.0062781343024727, 0.6706288024865, 0.30081088857277294, 1.366604451412349, -0.3715996925286289, -1.6847500218320244, 0.13361453059809297, -0.323370681352302, 0.8553883986793026, -1.0761600592199985, 0.21283230646026333, 0.4855309572163712, 1.1851138328179456, -0.18865533852755098, 0.2697143270537419, 0.15791586400092358, 1.0594792147055618, -1.2479608294060927, -1.2685336212000404, 0.44125282395644105, -0.015362211005637755, 0.23092253557186834, 0.18609368070703372, 0.6452926687654424, 0.4160552379561463, 0.2005017063313731, 0.851567825029782, -1.3195172559273758, 1.0698834226218037, -1.920313597510798, -0.6139300960340962, -0.2865833697924138, 0.9784956691458212, -0.04479355970354765, -1.1125963167063524, -0.18791451343518062, -0.6403982556981926, 2.042034983954419, -0.8518271185904233, -0.9084547857611153, -0.8172738971859049, 0.9173392794375581, -2.0054864993722985, 2.1822380614989974, 0.032242111322225014, 0.7544257953109708, -0.7707994966897667, -0.15948871545624937, -1.0415014224919141, -1.3482027189063563, 0.5592610891583029, 2.5768513655135767, 2.426303490704808, -0.4803108352100423, 1.3271217650324962, -0.26331398547146706, 0.5641875028083864, 0.12568462295355737, 0.7759439039026702, 1.8790023600166934, -2.066987394362776, 0.9128408033653781, 1.7526426525399996, 0.32939801562635357, 0.44954498073497906, 2.4057998420584603, 2.5010091081624, 0.6394857215527779, -0.3945088210977391, -0.36908714333138765, -0.20863600402347718, 0.18396819801532222, -0.5164339248198402, -0.5924249599559752, 0.500832562696704, 1.3307328047256681, -1.2899748757732585, -0.8921533296033017, -1.9418264815841686, 0.6129608724527528, -0.7723379289095161, -0.9127307815439724, 2.100500063209452, -0.49644427631282906, 0.5490485031432389, -2.660612435514448, 0.1509896316699268, 0.40260693918157314, -0.0024375513265684568, 0.5841337041751474, 1.931501354501641, 1.2016315951745316, 0.9933117743064322, -1.4172155522912924, 2.121560441645248, 1.5346975506634146, -0.28843671263363185, 1.3143317333957405, -0.12936310025397632, -0.12412737285819903, -0.25755851999878615, 1.4184342854783567, -0.4207493055109908, -1.0609149908064583, -0.5400701419635493, 1.1814251317787106, -0.023042779827344245, -0.7529042386886218, -0.5889424652534894, -0.6846931304357587, -1.525749470339873, 0.8762126932588197, -1.2916709604328254, 0.49133503541094575, 0.19732504220626984, 0.8428078634525047, 0.3085541818845043, -1.0132403561691266, -1.0671410662797172, 2.3302679457205993, 0.13664362460188947, 0.4761995693970787, -0.9796808782866442, -1.962154033196753, -0.480380843043476, -0.6397214029775196, -1.9681573262264718, 0.3058354645937866, 0.20902884400092445, -1.1807285136940378, -1.0720272667731032, -2.792233037681592, -0.0691947060787659, -0.514173000878965, 0.16137415202216882, -2.234540552818012, 0.5756175345188026, -0.7024248222784468, 1.441878892149464, 0.051629831727043766, -0.9053599816416941, -1.7594517695227145, 0.4256600751799527, -0.6069342135974909, -0.28030489734850794, 1.9324811170408656, -1.1081185672399356, -0.13632146501107764, 0.8259940293601522, 0.4198215125680032, 1.00514188565985, 0.45695064086339526, 1.1577895425921008, -1.0941772080445173, 0.48146683617416314, 1.4134164016372341, 0.37852273485510346, 0.4484078598227826, 1.3323559455133347, 0.1002184985299292, -1.113042374338974, -1.339387169496932, 0.9283171778289047, 1.0791834279843842, 0.5713861564745982, 0.16127345136682378, 0.7690426546626593, 0.3585567348209936, 0.46571803903659176, -1.8834506985359885, 1.8366756077557411, 0.16660056664307127, -0.5587075703169291, 1.3343086452373147, -0.16541567167815605, -1.7280068720138757, 1.952894715118882, 1.1102191639845234, 0.6406020573968579, -1.0911776390526884, -1.6535439515408827, 0.38889533175721713, -0.5001837813246761, -0.5415925224840735, 1.3517319193561803, -0.7831071869075258, 0.471657575987937, 0.6120364066332424, -0.7287130562525211, 0.32475779640812863, -0.7922945543175468, 1.2999929846147553, 0.23331433253563744, 0.7876514455213307, 0.06616949684376416, -1.580969818894466, -0.3897712668463119, 0.7320888115311844, 1.1178970567955298, -0.7593019054573702, 0.054697258101713934, -1.309783928305627, 1.35142719912946, -0.5648039190688041, 0.6586156843478553, -1.9592662929474498, -1.6426519426325783, -1.9307209365288363, -0.5605458163421215, -0.8837452320447425, 2.0776967761998697, 1.923738831904448, -1.1122972388094792, 0.04436083666225934, 0.5444276527439648, -0.9310813310371762, 0.7853628152126465, 0.21023340624174974, -0.9769410991697852, 1.0822180900246507, 1.0365490763511491, -0.208736189196793, -0.9747499587908097, 1.5274275308749719, 1.006682017484944, -0.008800473975025286, -1.028174050222535, -0.5237994867371015, -2.1804957632871074, 0.44572177210331854, -2.407535675207117, 0.27128850823344425, 0.25927294248386806, 0.4240103747361637, 1.221906466128982, -0.6693543170271237, 0.3837617495068259, -1.0877673767484008, -0.24208261197581615, 0.20642987526370457, -0.25881762885779763, -0.6364662692913885, 0.5910964063609684, 0.003987653152812786, -0.4691414218090374, 0.2220395616862966, -0.676291214726073, -1.484561950153054, -1.4869270291398906, -0.2794163435231656, -0.788972729388448, 0.06060791774621283, -1.0085919289078396, -0.0493574311181991, -0.27992820516338934, -0.009476582566899126, -0.7092788914865618, -0.23315113110124544, -0.486701579263077, -1.1430267471127111, 1.2721506400443083, -0.7300774090536517, 0.045203724999526095, 0.4586809299337902, 0.22092737225295384, 1.776350778665326, 1.564999487946808, -1.0390619569957333, -1.8674532022817072, -0.049294193749655706, -0.08822598310136509, -0.5851423280681547, 1.1068795528998092, 1.1186958692145994, 0.9722935618299142, -0.2953199029736977, 1.2786125917539823, -0.4904391281902498, -1.0591068069916487, 0.5604338940632981, 0.34626670707817186, -0.14682658605301768, -0.44325868065197493, 0.4441422776728939, 1.149537590158699, -1.0163834560630403, 1.4260159913685284, -0.09517773820749022, 0.46942071410336134, -0.004110263991133111, -0.02498699525297122, 0.5013362583834196, 0.5915020790269905, 3.141774712986779, -0.378754659024927, 0.0715295724921312, 0.809814372763666, -1.3396078824705415, 2.1245824524611634, 0.4865681194922477, -1.136122149800944, 0.39053316977200936, 0.07174878850507732, 0.5401442298247571, 0.4216262061330983, -1.3477986565306512, 0.14275664645376046, 3.2683961941115953, 0.6968108230396295, 1.0859310307601793, -0.6673068765653223, -0.5992840065839421, -2.509364533842851, -1.020424965906035, 1.1016542507579887, -1.0175319253692243, 0.32998996995597724, 1.086495940705939, -1.273710040659932, 1.2566550205024485, -3.101103944896514, -0.901976167631958, 0.7032450593499898, -0.9016979027212122, -0.1470634771877642, -2.475052914958168, 0.7387259111364874, 0.37656483836257726, 0.8192190537817274, -0.7381961746498552, 0.83644678549698, 0.4250924978542355, -1.1170779595584952, 1.1097356424839773, 2.0469710516406474, -1.7432327764054065, 0.6737883979488891, 0.6477645135156821, 0.9130054246715994, 0.12551508920551002, 0.012591494778846838, -1.2420955539915546, 0.06997443123657573, 1.559777384653898, 0.17829181683644543, -0.7395401790602588, 0.5490855039627787, 0.0019616929043933247, 0.08166272401282412, 1.1099459940140506, -0.6836176958387438, 0.7204099914434151, 0.6259853917871884, -0.9007144238630066, 0.5614423154214109, -1.0757452874737945, -0.2572631074315335, 1.160213853801486, -0.25056428818156234, 2.8166177337994345, -1.5003411928951635, 1.8546472385190602, -1.4704504698546341, -1.0698344933533046, 0.6886134909329681, 0.5171569241395876, 0.4317311535039561, -0.9884080874462156, -0.33316859028757667, -1.2402625867727497, 1.0826988739614651, -0.5694507933428469, -0.9766550552744173, -1.0517316995321366, -1.0830717570084316, -0.17425585301945343, 0.6363124478355586, 1.8231982626321965, -0.15622057936774478, 0.11145202451613723, -1.1755938789419087, 0.15968969537539923, 1.0416100798963428, 1.4438477084849906, -0.47361321418675517, 0.6662373078246328, -0.27009687771719737, 1.6086359557773162, 0.7129623414344728, 0.02422119296813371, 1.131998919030557, 0.7059902542006566, -0.3347918799333317, -0.7202991310820672, -0.26468392972347454, -0.007797036089272414, -1.4044830777881745, -0.9331450599846617, 0.24104966181800513, -0.40732231135550906, -1.7872851555457006, -0.729418622113935, 0.27011873782721246, 1.0325109150591938, -1.798577742800166, -1.381734407309119, 0.9692668933020395, 1.19663311504412, -0.899244021701792, -1.8232478472561675, -1.454930975282093, 1.4669218987629133, 1.9928475535374022, 0.8977006618684501, 0.3037735525220552, 0.5084542479631803, -0.6357827794666928, 2.4631104687123058, -0.42139429135984885, 0.614241231716939, -0.37336784701805437, 1.066599728050928, -1.7362629871969324, 1.590059085657658, 0.6281347350035977, 0.04697039736061495, -0.7149659350951025, 0.39879907985047575, -0.8287890822908389, -0.8905984097863, -0.23149324948294125, -0.556530388802732, -0.9245608291993025, -0.1689810372104261, -1.7949937669131857, -0.013287450665965721, -0.07458483132804522, -0.06766713813637261, -0.4337487999920073, -1.312048429271364, -0.22831316672869642, -1.181176096127252, -0.5289488061496089, -1.1583093029914906, 0.6896274040844722, -1.5539208568128078, 0.637648912818331, 0.8511958330924247, -0.8592352724978222, 1.6057901799312628, 1.765818123133973, 0.11597686544182574, -0.4715030854188221, -0.9604501821841903, -0.1782703483492441, -0.10698186267535145, 1.2658499799441287, 1.2390530445863688, 1.426888936679941, 0.15694589545766974, -0.9462279739692933, 0.9955769131737018, -0.2959842903153207, 0.9833811768950204, -1.0225426384965468, 1.2105231682049944, 0.03611063709987068, -0.5686069290164731, 0.06231689845119702, -0.9074463955472378, 0.5185502930591086, 0.8979035860643738, -1.6077946944183157, 0.5095683323730674, -0.07582855676156548, 0.7233453417146288, -1.2424158561300642, -0.9363079720195385, 0.46990365308961013, -1.107096786983352, -1.1324491950467575, -0.2906006407179384, 0.19021105155199539, 2.0166984420908363, 0.7932197178537559, -0.6519681268918951, 0.22667501712499205, 0.15821784629432215, 0.8925230490247686, -0.4928580355824257, 1.3950632301778128, -1.1402071242321843, -1.138290310292824, -0.0338760557007791, 0.45393184064845604, 0.1797622116491175, -0.23559352327926064, 0.4644954963296854, -0.048877946409604835, 1.4696417266160373, -1.5375029124423174, 0.11365778583931688, 1.4323716637020683, -1.8168885013632396, 0.34426831355454446, 0.3324287833461466, -0.3356351991703584, 1.9962799255655534, 0.5003759680897849, -0.9119723348780313, -0.1734936223387353, -0.2629345014401864, 0.6538671439134196, -2.4440021828068845, 0.4537077346772885, 0.05510790132410297, -1.4185460212639702, -0.014796892958872779, -0.8797671883314984, 1.621296430311301, -0.8572402657048369, -0.19101205766843787, -0.1758808784215785, -0.13779781694263193, -0.857551422460855, 0.44991319922111916, -0.01737759768412928, 0.9222101409442293, 0.6476356620953944, -1.159339516409218, -1.6044185965915212, -0.13628443179049393, -0.5237802405091204, -0.753618134714491, -1.3820551338535125, 0.4541768527352156, -0.844911622755176, 0.5875782747527585, -1.2198566664206452, -0.8615626786732237, -1.3074921982124088, 0.08723506480324988, 0.544706780890512, -0.6116731927771039, 0.036271529202477365, -0.05799356022184077, -0.723459385459401, 0.005994418011207983, -0.9313834878184344, 1.464992733317466, 1.8599183707858962, 0.21993481577145527, 0.8863148838554483, 0.06219351554296968, 1.1886714523559208, 0.5061050903046626, 0.3324260775299488, 2.677317174095789, -0.8614312211036986, -1.3456369870892293, 0.10047575169781302, 0.6403126933033941, 0.9959278631942163, -0.2945576987272126, 0.07769086648865557, -0.6142734281447989, 0.33024923660779015, 0.20652358673387552, 0.39616602919121396, 0.3064429103560912, -1.0169097071590711, 0.7740388459517885, 0.7272921688230373, -0.5031589687133462, 1.7547850081398868, -1.6007939079763764, -0.948386746093096, -1.4425270500276226, 0.4488931219874007, -0.8608388895415805, -0.1166879920727587, 0.7914351987593425, 1.660456308905145, 0.9849257204252526, -0.8700522957142929, 1.2708577141183246, -0.2821081381478565, 0.5925403648978068, 0.2769487889306603, 0.14914762744228252, -0.44416819094366927, -0.5477648003922209, 0.07462325090864295, -0.8305811490032525, 0.12313826440358075, -0.9125573871505608, -0.354835945318764, -1.3378457343145482, -0.43591117002170404, -0.7977775376226118, -1.3355814457728976, 0.8186398123336038, 0.2462418428852037, -0.5240525772700271, 1.45888024355814, -1.8326906216213261, -0.680572502455241, -0.47692325500338306, -0.6731178075875458, 1.659349454515503, -1.5981874348956735, -0.8401396116618569, -0.021659282336334757, -0.2899238275487884, 0.08996374313567074, -0.007854212332490396, 1.133115172253633, -0.2521469508155654, -0.3838307186571105, 0.5298670489730115, 0.7420366246490172, -0.06157834703873907, -0.01732721833307473, 0.8426563151684371, -1.0367215569233654, 0.2359539231163392, 0.024643328868950324, -0.007810018813928324, 0.6288714625614445, 0.2334645226031843, -1.1511207742653249, -0.900230056377426, 0.5420808301887443, -1.309449049071171, -0.4520996415804444, -0.6396468379027572, 0.09959585187376575, -1.3507882361866554, 0.244496490116626, 0.26038708985509373, -1.1708201314718212, 0.6718537828405858, -0.27697671833963927, -1.3219010408237817, -1.4248788034907018, -0.24596466823010577, -0.006075611603041547, 1.0705078981137008, 0.48024650959396004, 0.09978764297881432, 1.6871298351045085, 1.442664877246271, 0.35287666698270687, -0.5263111707174125, -0.00031392856157674815, 0.5847431229958321, 0.0040695985082188305, 0.41735282454428096, 0.07006109635891168, -0.28143300005649974, -0.7241085040936818, 0.012107123302736297, 0.18402215151799337, -0.9302019687157628, 1.9095254080084634, 0.874577583322414, -0.7334214340977921, -1.5724310791277767, -0.203965735299952, -0.3848905535213786, 0.2773918305541239, -0.822079684467401, 1.5422779909750268, -0.14909005196728822, -0.39877678290795976, 1.9662361839616476, -1.1159572378909957, -1.4656662045677762, -0.323219849357051, -0.6802359683635435, -1.6704531346689229, 0.782641622146075, -0.062332713100679595, -0.024423649584637545, 0.7685892489028915, 0.4621205485874255, 2.2346557613142495, -0.326024446538648, -1.083467640187898, 0.3125446429344055, 0.49485472201591646, 0.853727522976609, -1.7217084802910159, -1.2913148131816874, -0.5062503801911226, -1.4609601136165538, -0.4718365417717681, -0.7880462227224975, 0.30010383717437833, 1.3972470358592013, 1.684420352554755, 1.2762166506252115, -0.22945426381185569, 0.9308934791277288, 0.08333110845954617, -0.012443960586265014, -0.451554076345565, -1.1851329445282006, 0.17328430823442972, -1.0548323924581575, -0.8314088486309195, -3.2301124872768114, 0.5314308916185042, 0.22268646054805435, 0.29418645611744404, 0.05617795304173565, 0.3302234968340532, -0.3782690418586379, -2.80367452933461, -0.3479065425879454, 0.06481250794740125, -0.854151248731514, 0.26418225518675637, 0.28652892762293064, 0.03053581888099091, 0.6094257016838277, 1.2717545291119419, 0.08135330454653696, 0.9603911367340242, -0.7186506683337847, -1.7485945353035006, 1.027962959724895, -0.4097616282988426, -0.34598602994673844, -1.174947737403167, 0.5331146256423956, 2.098997645285965, 0.05633098214493039, 0.4749765332782119, 2.2629034615898487, -0.040775482314425154, 1.7458619199634666, 0.40194809203054377, 0.8742217811034652, 0.02266687766964238, 0.5197306381423591, 0.8654966309807327, -1.250402977076835, 1.5030759239885982, 1.2078561507322967, -0.564418336285632, -0.9303146275670547, 0.28876152216955475, 1.2524810041956311, -0.9426421469487564, -0.179832218435566, 0.6437040348074816, 0.2286772506398293, 1.1554720331175188, -0.7095377057121919, 0.8615958609620143, -0.2388921577151617, -0.9962979719836542, -0.5382282393607674, -1.4702607824498188, 0.6419761276075219, -0.16907303071577895, 0.277154448308024, -0.18475203182165614, 0.41266843327630215, -0.7079871625589893, -0.933287762791446, 0.26193446148973704, -0.1242102197111336, -0.798333469553732, 0.5507558917889319, 1.040625359941157, 0.22752745276710096, 1.0684715197384644, -2.381934043999738, -0.788573323116788, 0.6639310260196725, 0.054675623542221184, 1.5908635684901373, 0.06161930916580028, 1.2212570474426157, 0.6504162081845497, 0.0035792987484329513, -0.13690981928539311, -0.6359381930642011, 2.013190860901222, -0.6685714270799864, 1.39150763118731, 0.0965798462420261, 0.7121324689526273, 0.4030712868641274, -0.8008889220190856, -0.6357618431883377, 0.09796189844451515, 1.2501623508498687, 2.0171330645088017, -1.4584324606133523, -1.4362704280246426, -0.3367667593799792, -0.6579003953526098, 1.3152525234646526, -0.3146848000797584, -0.7181845542123625, 0.7184434511317559, -0.4975707807010617, 0.7777202267008545, 0.9230032800009853, -1.7143654955583827, -0.5087911736048064, 0.995570069740802, 0.9947161877944691, 0.330999309227029, 0.3621316333626527, -1.3222230661437422, -0.9388827606004164, -0.08042046982948459, 0.35987341623123575, 2.4753032909223642, -0.16677882546077005, -0.20155028720419035, 0.26893415111652547, -0.4735525367326089, 1.3151484048499045, 0.09517575396497266, 0.2693274141177417, 0.2854193042443675, 0.4379485599448484, 3.772406279084124, -0.3730580437986475, 0.18524931181355475, 1.1634931243358837, 0.019657652999731285, -0.7166808829883048, 0.5659633405749346, -0.5059290236706971, -0.44419831031801127, 0.16644745141565265, 0.013133948565079859, -1.2434070110685156, -0.147566933410603, -0.14102828101328826, 1.023365643056213, -0.35629112684482983, 1.0440869648563538, -0.678762478606716, 0.710362492501173, 0.3617531490491988, -0.07844663638606356, 0.36522821336833666, -0.28387080784212404, 0.32907614502119303, -0.028816113035469444, -0.1734998244957257, -0.35328461237799813, -0.42759426735168643, -0.21208333043295208, -0.626036147497868, -1.9956112888197333, -0.012356414524817649, -0.767266985081064, -0.3390184143140528, 0.8242939532334209, 0.791357803387324, -0.10319914833525658, 0.49785377385242485, -1.2965060596881117], [0.46581295044056903, 1.0574982229382297, 1.6144063300218563, -0.2805128380495009, 0.026114133033659923, -0.3242676898194949, -0.9219170273793639, 0.9926391177484841, -0.436164465585431, -0.3769812307882154, -0.6303206400143098, 1.1195855525261178, -1.28241294241285, -0.9151438574189679, -0.9103190190967105, 0.2516643934570847, 1.6622527570447634, 0.2150654249394936, -0.8938470833091661, -0.45676182761223233, -0.1373660669382359, 0.2477705468898073, 0.09972116259569486, 0.8618261741697385, -2.151979369554527, 1.1758945169708916, 0.09549570295177454, -0.2268784263965012, -1.2595667021677561, 0.5311933662344357, 2.3378221600486784, 0.43353222042780404, 0.3281442784910944, -0.6971852273543929, -0.6549841334354423, 0.3140518334049866, 1.4174486078896569, 2.262568769513501, -0.619714648904976, 1.894990584734978, -0.9701551941331051, 0.5763594114082484, -0.5468637970130417, 0.4382535955325808, 0.3523945948161405, -0.6232810198611932, 0.0007742115491712128, -0.4112370203152447, -0.9371308149972887, 1.2617265582988662, 0.7664777594930414, -0.3925553216807503, -1.706152702968372, 1.2065041097592484, -0.34695153124005057, -0.3518506569789039, -0.8149851010084526, 2.203453840372016, 0.05025807632565225, -1.9260169922881392, -1.2036885825696406, -1.5319297852421978, -0.5558109918704902, 0.7237142937687762, 0.47224604932163694, -0.5202049673628222, 0.1726804387322927, -1.0304765904164603, 1.0838283026696989, -0.7689638689550333, -0.2896382813042477, -0.969922136189573, -0.03429429871800901, -0.011623844048353591, -0.26538412973149256, 0.8648286076394658, -0.9841090686001932, -2.0190585586291117, 1.0828291411594304, -0.19446315727756108, -0.549363090158317, 1.2632302005271805, -1.1246724169881082, -0.4275255502889332, -0.5205372758187147, -0.6163028381065278, 2.4420733347654173, -0.7847981226308675, 0.3566672770112301, -0.4253803057108487, -0.7038198901416852, 0.5680456675112898, -0.2986847617541883, -0.5161308351144669, -0.389603937766099, 1.736116754754236, -1.5604345571644083, -0.07207732919640142, 1.5685558675372964, 0.10064355372621261, 0.3927603530365076, -1.100426928747353, 0.9651787739693724, 0.39817365375990527, 0.20616469899835188, 1.0175809712992963, 0.4772461491384706, -0.9728086496974552, 1.8186184811131254, -0.6835019694908371, 0.6027320193920882, 0.3516864176839799, 1.9686006027081326, 0.6332812641785168, 1.5740242031483747, 1.8630019896750312, -0.07215406004975153, 0.5426125266002375, -0.7268892946620749, 0.5111875724242396, 3.2098387924419223, -0.1870568003653299, 0.18413347988736287, 1.6528310766259129, 0.06863028115998238, -0.3673145294638131, 0.06795903478187251, 2.0879281260829163, 0.4405310690496836, -0.3440603579746506, 0.14501745489223808, -0.3499461298613284, -0.20738778813615039, -0.9470582020726338, 0.9829550106754136, 0.05555216441964255, 0.6570158891364298, 0.4521449328508106, -2.0165398770123018, -1.4689988464631927, -0.5430499331838395, 0.5325023989926208, -2.0894602478518407, 1.3115342385491635, 1.2508352994236063, -1.0906560092858073, 0.6355905853650197, -3.0747020835766152, 0.3084634354524791, 0.3886687199659236, 0.5787459379362889, -0.6108263538256511, 0.6562058677778242, -0.8378411244362989, 1.038527766745465, 0.09371741271222647, 0.10094377568265883, 1.0591066272947325, -2.4612541375196835, 1.4229263347141998, 0.6719600399907095, -1.7685177687190932, -0.571642023278173, -0.010428827994881519, -0.9848781409223502, 1.3171532591380999, -0.7378585882215245, -2.3857794533022703, 0.17512646528158496, -1.6848695695459843, -0.4986883105195383, -0.23776123396361254, 0.3688250966321603, -0.06153701280101756, 1.3129672700417818, 1.7014752227299146, -1.4259574747754895, -0.9570068130490503, 1.036944311435763, -0.6153572041587683, 1.2794995794045383, -0.2381372361504507, 0.8652795266771077, -0.48262859600176156, 0.4167648054904791, 0.5361558387601856, 2.091308606425326, 0.8303268523409174, -0.7927709188916396, 0.15334722489021388, 0.8455686535406852, 0.13654421811193732, -0.9909167373752753, 0.48171444399745417, 0.6824149355564354, -1.3324252389121811, 1.034517285787292, 0.17081330561297567, 0.6077843380920881, 0.6957137306488882, 0.20520847875709886, 1.2338715283865644, 0.6788312263651636, 0.2591697860997199, -1.771815822647742, -0.4535743173574383, -0.9824234093310732, -1.4142024735451968, -0.47953652676977593, 0.9512585133691435, -0.21227300813138894, 0.39925986457614976, 1.7842079563679756, 0.09898952078353568, -2.0688871787016208, 0.19690613351554237, -0.3253550551542027, -1.372611532573725, 0.09407788467329893, 0.4050939723742807, -0.09709800104482905, 0.13240489062691457, 1.364880507634896, -0.3153821144926557, -1.4836612545323506, -0.74063437632093, 0.0742485382852519, -0.6721354029501594, 0.1560637892597963, -0.379222063916193, -1.39195998868863, 1.0999546932966389, -0.818359820059842, -1.6231358849757462, -0.8180191165446442, 0.5273008837494353, 0.3091270890680536, 1.6253762912554814, 0.6864272172651491, 1.0929840521441838, 0.3686008861516772, -0.7560649964586629, -0.7725206498593515, 0.23431141792973992, -1.62435712813779, -1.1621324342126496, -1.7883510264292068, -0.054121744150915814, -1.5535501737797202, -0.49118244806406786, 0.5300035416498823, 0.050180511303475714, 1.8373634045584517, 1.6695906113540768, -1.262008818465614, 0.32948356560511916, -0.04596857801151858, -1.4437148040523295, 0.9027492211310086, 2.8056970076817462, 2.8516740781486707, -2.1053376989458443, -0.3481542681257741, 0.9495677674004017, -0.2646358503600681, 0.017381731911372506, -1.9063402279312724, 1.2943184902048428, -1.435716176989407, 1.066876008381149, -0.4394206936941146, -0.7300472067563619, 1.3166577019912287, -0.792719236388007, -0.7987473127784671, -0.47423593365846817, -0.7042682006417659, -1.9915636566136812, -0.06044737400623925, 0.32825983688517785, -0.43318199758900877, -0.766500729067035, 1.9421181448403921, 0.4200663796076045, 1.9946565223028947, 0.8099382268560681, -0.33849508379294413, -0.596117231806234, 0.4101157976457502, -0.7525594717983032, -0.5957556107837296, -0.6005831472834091, -0.5825038190929729, 0.6934933233733428, -0.7918496236990782, -0.8121524917791418, 0.44850616988525066, -0.5381027138302701, -0.17611480974983587, -1.746008742217431, -1.3872546449328813, -0.948032377767552, -1.0018434167027765, -0.007225212182931512, 0.43499214168369443, 1.0220248603916475, 0.6919436157729165, -0.10360793378898411, 0.3606561699366148, -0.07911821015565293, 0.09540041699564651, 0.41723484784465353, 0.3168259651590359, 0.3778729664755354, -1.4967277700588975, 0.27917887653968415, 1.4686042765006488, -1.0995570393379235, -0.8790498629936153, -0.3281123570475866, 0.008065548333587625, -1.4389555808808747, 0.7999931592005809, -0.17632826202343604, 0.2842787277972965, -0.20256875670000749, 1.1789538210476713, -0.18450917419843155, 1.2296168075396274, -0.2580078568611908, 1.84100701710688, 2.421651255019224, 1.3983863230796056, 0.4056486576381512, -0.5515058618992833, 0.05275948326647205, -0.8926763252179326, -1.0288866769519311, -0.6878720407813183, -0.9618130729775164, 0.7299855534205341, -2.758721683988293, 1.40959315946975, 1.4872304910711907, 0.6627613591635008, -0.42811834858920617, -1.1008257276166697, -0.5824162377610077, 0.3931180909958836, 0.5001135014544125, 0.5390500513262778, -1.2296954505236501, 0.19361886328683475, -0.3305725384328492, -0.427567229240477, -0.23696428780271417, 1.933820377098168, -1.2945693686963702, 0.9867391646956166, -2.0074433335381117, 1.4116552312953874, -1.302605704652016, 1.597518209833867, -1.437506428524717, 0.25235838574261366, 0.227526596067875, 0.39726150830075097, 0.3468186909736386, -1.1620793907575047, 0.6766124528828354, -0.6459955032404392, -0.04119135382243048, -1.8132558774419734, -1.541818552559427, -0.4081731199907147, 0.26560976987213336, -0.16594241733888554, 1.5558875200807702, 0.17129416243770348, -1.7530762467620673, -1.5487781596668906, -1.7327713080969338, -0.25552855236040706, 0.3379341072342591, 1.0959859213752943, -1.3153559502078658, 1.8349817800757782, -0.33373958759456473, -0.11143270453456877, -1.0137211547492049, 0.9947395866949765, 0.22632322858721798, 0.465245948667866, 0.5478160454456915, -0.35014658988217345, 0.4828678199838443, 0.3271754457105001, -0.012986433857610906, -1.1808128557506536, -0.7529761919186246, 2.64820883189924, -1.7060328222911276, 0.4716249402549804, 1.2385490288161711, -0.707429553684966, -0.956448234254835, 0.810596687885966, 1.1183399869261417, 0.09303269124693868, -1.8275197129627743, -0.11906902311472126, 1.1515314683674003, -0.4368818842874867, 0.012969297726364095, -1.742113122772224, -0.310683001595313, -2.1855912839715876, 0.5785322564642006, 0.8763819758503649, -0.7119732207078527, -1.5093357744684106, -1.0065784710325687, 0.19461777588208337, 0.8850652591765372, -2.192397970710592, -0.020010717828465738, 0.5542939647623775, -0.9992142559519042, 0.21407883456255625, -0.6651423935472814, -0.4331244625730054, -1.818832759175762, -0.3254757792306198, -0.3564957331282236, -1.3810057737592174, -0.8781243261565544, 0.7485810708356778, 0.7162580784191075, -0.7733682767215475, 1.0817048753158733, -0.8523571970256579, -0.7768923810353455, -0.8097192650005404, -0.7120570674932738, 0.24844871493633922, -0.3001303491425291, -1.9344517258852636, 1.0289083246425537, -1.3393592213657304, 0.20794818804298118, 0.1379012733794941, -1.2958279412059972, 0.0708677258153169, 1.4020129899242206, 0.17111877914512494, -0.3362360441335922, -0.9682442276899879, 0.3041425676097991, -1.0793655188423965, 0.425332926041474, -0.23762493782548297, 0.7546762231708137, 0.5987942322379964, -1.053363371309445, 1.4067999614557871, 0.2124602207995563, -0.498053888394259, 1.1465193300015504, 1.210438041743918, -1.913312766788321, 0.45847149362046996, -1.4806901827620778, 1.9509033492163652, -1.2358337133030297, -0.7124060679658875, -0.4514953776408443, -0.8171991024198156, 1.2854605233843277, -0.3932235559360675, -0.9535748376126455, 0.9907771971306842, -1.3039290462883253, 0.13677211764459488, 0.3954031393626891, -0.9503548267578099, -0.5942184896172535, 1.2210483551484674, 0.01686339890002287, 0.19450121540912352, 1.0905368105929802, -0.975635924975789, -0.981572419223471, 0.8894376337002047, 1.4589949661984623, 0.5484162856147674, -0.5802177318382888, 2.6028662744889086, -0.3623980257774181, -0.3596708839010704, -1.4665127356441146, 0.8491243275184338, 2.810881381022084, 0.506210552046783, -0.8866950232786878, 0.32649022856515647, -0.23004834153657722, -0.722967792459996, -0.703365327555313, -1.6849190470666446, 0.05099222120823925, 0.05378003291644178, -0.6244027458804888, 0.7111127376046915, 1.4070090149988237, 1.0451725010701436, 0.07758111326198325, 1.3648972394552725, -0.5237994294042816, 0.9769327362546979, 0.6994658574824948, -0.5382063746742258, 0.46366892891995704, 0.4117404186735337, 0.4962294568501098, 0.025702153675293965, -1.0482701381756458, 0.7692797646943527, 1.2232081838342175, 1.1267792194803443, -1.1078423716000472, -0.7038604962715073, 0.009043279314614489, 1.9816145136963645, -0.5984051124495378, 2.265696750387084, -0.399402602264841, 0.5174319098144156, 1.119681497857444, 0.2895931255080398, -0.9006463182416669, -2.0210595138799365, 0.32473258625858703, 0.05112121030308824, 0.5258022455755498, 0.8044419496204015, -1.2258819148272397, 1.10338442224504, 0.2799890253589283, 1.127181700144116, 0.1805571083799732, -0.07595084687175187, -0.1359852281041833, -2.3640816499379715, -0.2722215287999735, 0.2965950161817351, -0.4099298481943691, -0.12573709320879353, 1.058722503194363, -0.7099286336328927, -0.25642080466813844, -0.1696762438230232, 1.0547326707745617, 0.956519121207696, -0.2709581543375606, -0.20990288383174893, -0.3288107381382741, 0.6377518361467066, 1.3423758725302684, 0.6442282504618122, 0.6535487483673058, -0.6742077480060237, -0.6755001145787441, -0.6015721791294454, -0.18767943808978493, -0.5602297452598816, 1.1043404298970092, 1.086986804579864, -0.6929714679679514, -1.9780341018129084, -0.7607369792999751, 0.32825617642973054, -1.9086125435821424, -0.6362078031530772, -0.9309436042039705, 0.02308288955302785, -1.5521331158982286, 0.27425680227166466, -0.29068755145581754, 0.5760281434612202, 0.3169375133983772, -1.4856487614577973, -0.6824827388173414, 0.12259533413360404, -0.7144642384864892, -1.475700974634122, 0.09788403120148058, -1.1048442251541222, -0.11416353014997813, -0.10396630355259288, 0.7437471920831276, 1.7663801482852526, -1.2034674129470078, 0.16795131315765496, -0.08921731906453167, 0.15267903335906705, 0.8589054974182695, 0.6573500591755566, 0.6789342442445966, -1.4665452457021404, 0.016323837861357476, 0.5268418537557599, 0.5673594984036325, -0.8690746857138988, 2.410801388402106, 1.0405387665751833, 0.46824882934413936, 0.16550043166151285, 0.6308906872926923, -0.5595211450403969, -0.3448546658734696, -0.8521377500928896, -0.44351451435976963, 1.1764264012360341, -1.0641197480136122, 0.7711503565381207, 0.9415030579806959, -0.3810785250838216, -0.07302346360138617, -0.4246525289947228, -0.18207166207204642, 0.25925475060873504, 0.4945257852335636, 0.05903195397684498, -0.13043849005209848, 0.5162902680116027, 1.0374063965635087, -1.080264136758957, -1.3889357484929257, 0.8598475614547733, 0.7247843460634779, -0.8298006047126572, -1.9584566031984332, 0.33227676803781325, -0.14572213967643954, 1.761971472343851, 0.9907233606957064, -1.2055200868798157, -0.17624670953266058, -0.7952527131342897, -1.3571673472798946, 0.5396831654471307, 0.9992313828589108, -1.2123201501737497, 1.9023870817587647, 0.23756275706493923, 0.8454276003689557, 0.7900128455604378, -1.6368665059801775, -1.873593042601337, 1.1323581586463902, -0.03741201964971961, 0.32309334850648613, -0.022392118219464845, 0.2820909610729959, -0.036900511974097744, -0.24429715115311512, -0.3261063484904262, 0.29245309211230264, -1.4924400436039382, -1.2208587363488155, -0.6076353140345008, -0.5628722138581189, -0.9837034691784338, 1.8479383854875406, 0.6083403014203951, -0.06527409345820079, 0.015842924789144903, -0.15015130695770043, 1.0988808024571146, 1.1235699123974903, 0.4126481182012709, 1.183216436832037, -0.02540757252168268, -1.1179289542888307, -0.3174213380988927, 0.6492996817026162, -0.5577805296309978, -0.21195753948547608, 0.08401134259122926, -0.41240595898508925, -0.22069983179367053, -0.31057169136856333, 0.8128108293673847, -0.03701750030006261, 0.7743111427312498, 0.29312660829749354, -1.661421481576287, 1.3464803028832715, 1.5393359213054374, 1.0186147552061142, -0.8726228348442067, -0.7695804501266038, 0.43602816243674397, 1.1216801713487052, -0.6474629048786417, 0.2658899804880343, -0.784442216361359, 0.4740873616142469, 1.0083174800094712, 0.23867217426879705, 0.5556779261711117, 0.6983843531053103, 2.4051819218713257, 0.5754518712722196, 0.7830405848776063, -0.4052758213371366, 0.34141281229160686, 0.8265361282144243, 0.42581072639758677, 2.175090589473214, -0.9667492654488561, -2.687173557584181, -1.9805258627393518, 0.540094173569025, 0.8441285761890751, -0.30245121636874417, 0.9326058577742721, -0.3757141157352416, 1.678511469120071, -2.5064825326989477, -0.6813408311614197, 0.7786291671513166, 0.7248764544967983, -1.2861666261919715, 1.3692038694239452, 2.4751093957899686, 0.08029666643514677, 0.640592881812164, 1.2397851052685995, -1.0789471646977338, 1.4778883342188822, 1.7470964888919784, -2.2247285802924313, -0.15822334715557848, -1.1470607706390397, 1.1164817706947467, 0.36110482950960016, -0.9110365846743673, 0.18028252013996876, -1.1144500385323381, 1.2716226947211302, 